[{"title":"OpenCV----YOLOv3目标检测","date":"2022-01-10T12:50:21.000Z","path":"2022/01/10/opencv/","tags":[{"name":"opencv","slug":"opencv","permalink":"http://example.com/tags/opencv/"},{"name":"dnn","slug":"dnn","permalink":"http://example.com/tags/dnn/"},{"name":"yolov3","slug":"yolov3","permalink":"http://example.com/tags/yolov3/"},{"name":"深度学习","slug":"深度学习","permalink":"http://example.com/tags/%E6%B7%B1%E5%BA%A6%E5%AD%A6%E4%B9%A0/"}]},{"title":"Outline for topics","date":"2022-01-10T12:50:21.000Z","path":"2022/01/10/topics/","tags":[{"name":"opencv","slug":"opencv","permalink":"http://example.com/tags/opencv/"},{"name":"VScode","slug":"VScode","permalink":"http://example.com/tags/VScode/"},{"name":"C++","slug":"C","permalink":"http://example.com/tags/C/"},{"name":"Tensorflow","slug":"Tensorflow","permalink":"http://example.com/tags/Tensorflow/"},{"name":"Pytorch","slug":"Pytorch","permalink":"http://example.com/tags/Pytorch/"},{"name":"Ubuntu","slug":"Ubuntu","permalink":"http://example.com/tags/Ubuntu/"}]},{"title":"Hello World","date":"2022-01-09T23:48:43.563Z","path":"2022/01/10/hello-world/","tags":[]},{"title":"OpenCV----YOLOv3目标检测模型推理","date":"2022-01-09T13:43:01.000Z","path":"2022/01/09/OpenCV----YOLOv3目标检测模型推理/","tags":[{"name":"opencv 目标检测 yolov3 DNN","slug":"opencv-目标检测-yolov3-DNN","permalink":"http://example.com/tags/opencv-%E7%9B%AE%E6%A0%87%E6%A3%80%E6%B5%8B-yolov3-DNN/"}]},{"title":"OpenCV----简单对象分类","date":"2021-12-25T12:30:49.000Z","path":"2021/12/25/OpenCV----简单对象分类/","tags":[{"name":"opencv ml svm bayes boost","slug":"opencv-ml-svm-bayes-boost","permalink":"http://example.com/tags/opencv-ml-svm-bayes-boost/"}]},{"title":"OpenCV----简单目标提取和分割","date":"2021-12-22T08:35:36.000Z","path":"2021/12/22/OpenCV----简单目标提取和分割/","tags":[{"name":"opencv 光消除 轮廓提取 连通组件分析 图像分割","slug":"opencv-光消除-轮廓提取-连通组件分析-图像分割","permalink":"http://example.com/tags/opencv-%E5%85%89%E6%B6%88%E9%99%A4-%E8%BD%AE%E5%BB%93%E6%8F%90%E5%8F%96-%E8%BF%9E%E9%80%9A%E7%BB%84%E4%BB%B6%E5%88%86%E6%9E%90-%E5%9B%BE%E5%83%8F%E5%88%86%E5%89%B2/"}]},{"title":"OpenCV----GUI设计示例","date":"2021-12-20T07:20:43.000Z","path":"2021/12/20/OpenCV----GUI设计示例/","tags":[{"name":"opencv GUI QT","slug":"opencv-GUI-QT","permalink":"http://example.com/tags/opencv-GUI-QT/"}]},{"title":"VSCode配置之Opencv4x终极奥义","date":"2021-12-14T10:43:35.000Z","path":"2021/12/14/VSCode配置之Opencv4x终极奥义/","tags":[{"name":"vscode opencv cmake","slug":"vscode-opencv-cmake","permalink":"http://example.com/tags/vscode-opencv-cmake/"}]},{"title":"C++高级编程----剖析（profile）","date":"2021-12-11T13:11:51.000Z","path":"2021/12/11/C++高级编程----剖析（profile）/","tags":[{"name":"c++ gprof 剖析 性能分析","slug":"c-gprof-剖析-性能分析","permalink":"http://example.com/tags/c-gprof-%E5%89%96%E6%9E%90-%E6%80%A7%E8%83%BD%E5%88%86%E6%9E%90/"}]},{"title":"C++高级编程----对象池实例","date":"2021-12-11T12:35:21.000Z","path":"2021/12/11/C++高级编程----对象池实例/","tags":[{"name":"c++ 高效编程 对象池","slug":"c-高效编程-对象池","permalink":"http://example.com/tags/c-%E9%AB%98%E6%95%88%E7%BC%96%E7%A8%8B-%E5%AF%B9%E8%B1%A1%E6%B1%A0/"}]},{"title":"C++高级编程----多线程编程","date":"2021-12-08T09:14:37.000Z","path":"2021/12/08/C++高级编程----多线程编程/","tags":[{"name":"c++ 多线程 条件变量 互斥体 原子操作","slug":"c-多线程-条件变量-互斥体-原子操作","permalink":"http://example.com/tags/c-%E5%A4%9A%E7%BA%BF%E7%A8%8B-%E6%9D%A1%E4%BB%B6%E5%8F%98%E9%87%8F-%E4%BA%92%E6%96%A5%E4%BD%93-%E5%8E%9F%E5%AD%90%E6%93%8D%E4%BD%9C/"}]},{"title":"C++高级编程----模板的高级特性","date":"2021-12-04T13:17:01.000Z","path":"2021/12/04/C++高级编程----模板的高级特性/","tags":[{"name":"c++ 模板编程 元编程 变长参数模板","slug":"c-模板编程-元编程-变长参数模板","permalink":"http://example.com/tags/c-%E6%A8%A1%E6%9D%BF%E7%BC%96%E7%A8%8B-%E5%85%83%E7%BC%96%E7%A8%8B-%E5%8F%98%E9%95%BF%E5%8F%82%E6%95%B0%E6%A8%A1%E6%9D%BF/"}]},{"title":"C++高级编程----扩展STL","date":"2021-12-02T14:39:13.000Z","path":"2021/12/02/C++高级编程----扩展STL/","tags":[{"name":"c++ 哈希算法 数据结构 STL","slug":"c-哈希算法-数据结构-STL","permalink":"http://example.com/tags/c-%E5%93%88%E5%B8%8C%E7%AE%97%E6%B3%95-%E6%95%B0%E6%8D%AE%E7%BB%93%E6%9E%84-STL/"}]},{"title":"视觉十四讲之代码编译","date":"2021-11-08T01:56:20.000Z","path":"2021/11/08/视觉十四讲之代码编译/","tags":[{"name":"自动驾驶 计算机视觉 人工智能","slug":"自动驾驶-计算机视觉-人工智能","permalink":"http://example.com/tags/%E8%87%AA%E5%8A%A8%E9%A9%BE%E9%A9%B6-%E8%AE%A1%E7%AE%97%E6%9C%BA%E8%A7%86%E8%A7%89-%E4%BA%BA%E5%B7%A5%E6%99%BA%E8%83%BD/"}]},{"title":"Leetcode前缀和问题集锦","date":"2021-10-12T11:18:24.000Z","path":"2021/10/12/Leetcode前缀和问题集锦/","tags":[{"name":"leetcode 算法","slug":"leetcode-算法","permalink":"http://example.com/tags/leetcode-%E7%AE%97%E6%B3%95/"}]},{"title":"Leetcode排列组合问题集锦","date":"2021-10-06T03:18:04.000Z","path":"2021/10/06/Leetcode排列组合问题集锦/","tags":[{"name":"LeetCode leetcode 算法 排列组合","slug":"LeetCode-leetcode-算法-排列组合","permalink":"http://example.com/tags/LeetCode-leetcode-%E7%AE%97%E6%B3%95-%E6%8E%92%E5%88%97%E7%BB%84%E5%90%88/"}]},{"title":"FastAPI+TensorFlow1.14常见错误","date":"2021-09-04T08:03:19.000Z","path":"2021/09/04/FastAPI+TensorFlow1.14常见错误/","tags":[{"name":"FastAI","slug":"FastAI","permalink":"http://example.com/tags/FastAI/"}]},{"title":"剑指OFFER系列之62----圆圈中最后剩下的数字","date":"2021-07-04T14:16:39.000Z","path":"2021/07/04/剑指OFFER系列之62----圆圈中最后剩下的数字/","tags":[{"name":"约瑟夫环 循环链表 递归","slug":"约瑟夫环-循环链表-递归","permalink":"http://example.com/tags/%E7%BA%A6%E7%91%9F%E5%A4%AB%E7%8E%AF-%E5%BE%AA%E7%8E%AF%E9%93%BE%E8%A1%A8-%E9%80%92%E5%BD%92/"}]},{"title":"剑指OFFER系列之61----扑克牌中的顺子","date":"2021-07-04T09:05:46.000Z","path":"2021/07/04/剑指OFFER系列之61----扑克牌中的顺子/","tags":[{"name":"连续性判断","slug":"连续性判断","permalink":"http://example.com/tags/%E8%BF%9E%E7%BB%AD%E6%80%A7%E5%88%A4%E6%96%AD/"}]},{"title":"剑指OFFER系列之60----n个骰子的点数","date":"2021-07-04T09:01:45.000Z","path":"2021/07/04/剑指OFFER系列之60----n个骰子的点数/","tags":[{"name":"数学期望 掷骰子","slug":"数学期望-掷骰子","permalink":"http://example.com/tags/%E6%95%B0%E5%AD%A6%E6%9C%9F%E6%9C%9B-%E6%8E%B7%E9%AA%B0%E5%AD%90/"}]},{"title":"剑指OFFER系列之59----队列的最大值","date":"2021-07-04T08:56:56.000Z","path":"2021/07/04/剑指OFFER系列之59----队列的最大值/","tags":[{"name":"滑动窗 双向队列","slug":"滑动窗-双向队列","permalink":"http://example.com/tags/%E6%BB%91%E5%8A%A8%E7%AA%97-%E5%8F%8C%E5%90%91%E9%98%9F%E5%88%97/"}]},{"title":"剑指OFFER系列之55----二叉树的深度","date":"2021-06-24T08:14:05.000Z","path":"2021/06/24/剑指OFFER系列之55----二叉树的深度/","tags":[{"name":"剑指offer 二叉树的深度 深度优先","slug":"剑指offer-二叉树的深度-深度优先","permalink":"http://example.com/tags/%E5%89%91%E6%8C%87offer-%E4%BA%8C%E5%8F%89%E6%A0%91%E7%9A%84%E6%B7%B1%E5%BA%A6-%E6%B7%B1%E5%BA%A6%E4%BC%98%E5%85%88/"}]},{"title":"剑指OFFER系列之54----二叉树中第k大节点","date":"2021-06-24T03:33:31.000Z","path":"2021/06/24/剑指OFFER系列之54----二叉树中第k大节点/","tags":[{"name":"剑指offer 二叉搜索树 深度优先","slug":"剑指offer-二叉搜索树-深度优先","permalink":"http://example.com/tags/%E5%89%91%E6%8C%87offer-%E4%BA%8C%E5%8F%89%E6%90%9C%E7%B4%A2%E6%A0%91-%E6%B7%B1%E5%BA%A6%E4%BC%98%E5%85%88/"}]},{"title":"剑指OFFER系列之51----数组中的逆序对","date":"2021-06-22T09:34:06.000Z","path":"2021/06/22/剑指OFFER系列之51----数组中的逆序对/","tags":[{"name":"剑指offer 分治算法 逆序对","slug":"剑指offer-分治算法-逆序对","permalink":"http://example.com/tags/%E5%89%91%E6%8C%87offer-%E5%88%86%E6%B2%BB%E7%AE%97%E6%B3%95-%E9%80%86%E5%BA%8F%E5%AF%B9/"}]},{"title":"剑指OFFER系列之48----最长不含重复字符的子字符串","date":"2021-06-21T15:14:03.000Z","path":"2021/06/21/剑指OFFER系列之48----最长不含重复字符的子字符串/","tags":[{"name":"剑指offer 最长子字符串","slug":"剑指offer-最长子字符串","permalink":"http://example.com/tags/%E5%89%91%E6%8C%87offer-%E6%9C%80%E9%95%BF%E5%AD%90%E5%AD%97%E7%AC%A6%E4%B8%B2/"}]},{"title":"剑指OFFER系列之46----把数字翻译成字符串","date":"2021-06-21T14:00:32.000Z","path":"2021/06/21/剑指OFFER系列之46----把数字翻译成字符串/","tags":[{"name":"剑指offer 动态规划 数字翻译","slug":"剑指offer-动态规划-数字翻译","permalink":"http://example.com/tags/%E5%89%91%E6%8C%87offer-%E5%8A%A8%E6%80%81%E8%A7%84%E5%88%92-%E6%95%B0%E5%AD%97%E7%BF%BB%E8%AF%91/"}]},{"title":"剑指OFFER系列之40----最小的K个数","date":"2021-06-19T02:19:31.000Z","path":"2021/06/19/剑指OFFER系列之40----最小的K个数/","tags":[{"name":"剑指offer 最大堆 快排算法","slug":"剑指offer-最大堆-快排算法","permalink":"http://example.com/tags/%E5%89%91%E6%8C%87offer-%E6%9C%80%E5%A4%A7%E5%A0%86-%E5%BF%AB%E6%8E%92%E7%AE%97%E6%B3%95/"}]},{"title":"剑指OFFER系列之36----二叉搜索树与双向链表","date":"2021-06-17T07:50:53.000Z","path":"2021/06/17/剑指OFFER系列之36----二叉搜索树与双向链表/","tags":[{"name":"剑指offer 二叉搜索树 双向链表","slug":"剑指offer-二叉搜索树-双向链表","permalink":"http://example.com/tags/%E5%89%91%E6%8C%87offer-%E4%BA%8C%E5%8F%89%E6%90%9C%E7%B4%A2%E6%A0%91-%E5%8F%8C%E5%90%91%E9%93%BE%E8%A1%A8/"}]},{"title":"剑指OFFER系列之34----二叉树中和为某一值的路径","date":"2021-06-11T08:02:02.000Z","path":"2021/06/11/剑指OFFER系列之34----二叉树中和为某一值的路径/","tags":[{"name":"剑指offer 深度优先 二叉搜索树的和","slug":"剑指offer-深度优先-二叉搜索树的和","permalink":"http://example.com/tags/%E5%89%91%E6%8C%87offer-%E6%B7%B1%E5%BA%A6%E4%BC%98%E5%85%88-%E4%BA%8C%E5%8F%89%E6%90%9C%E7%B4%A2%E6%A0%91%E7%9A%84%E5%92%8C/"}]},{"title":"剑指OFFER系列之31----栈的压入和弹出序列","date":"2021-06-10T09:26:09.000Z","path":"2021/06/10/剑指OFFER系列之31----栈的压入和弹出序列/","tags":[{"name":"剑指offer 堆栈序列","slug":"剑指offer-堆栈序列","permalink":"http://example.com/tags/%E5%89%91%E6%8C%87offer-%E5%A0%86%E6%A0%88%E5%BA%8F%E5%88%97/"}]},{"title":"剑指OFFER系列之25----合并两个排序链表（拓展：合并K个链表）","date":"2021-06-08T08:17:11.000Z","path":"2021/06/08/剑指OFFER系列之25----合并两个排序链表（拓展：合并K个链表）/","tags":[{"name":"剑指offer 合并链表 分治算法","slug":"剑指offer-合并链表-分治算法","permalink":"http://example.com/tags/%E5%89%91%E6%8C%87offer-%E5%90%88%E5%B9%B6%E9%93%BE%E8%A1%A8-%E5%88%86%E6%B2%BB%E7%AE%97%E6%B3%95/"}]},{"title":"剑指OFFER系列之20----数值字符串","date":"2021-06-07T09:15:51.000Z","path":"2021/06/07/剑指OFFER系列之20----数值字符串/","tags":[{"name":"剑指offer 数值匹配","slug":"剑指offer-数值匹配","permalink":"http://example.com/tags/%E5%89%91%E6%8C%87offer-%E6%95%B0%E5%80%BC%E5%8C%B9%E9%85%8D/"}]},{"title":"剑指OFFER系列之12----矩阵中的路径","date":"2021-06-07T03:15:32.000Z","path":"2021/06/07/剑指OFFER系列之12----矩阵中的路径/","tags":[{"name":"剑指offer 回溯算法 矩阵路径","slug":"剑指offer-回溯算法-矩阵路径","permalink":"http://example.com/tags/%E5%89%91%E6%8C%87offer-%E5%9B%9E%E6%BA%AF%E7%AE%97%E6%B3%95-%E7%9F%A9%E9%98%B5%E8%B7%AF%E5%BE%84/"}]},{"title":"剑指OFFER系列之18----删除重复节点","date":"2021-05-19T09:33:37.000Z","path":"2021/05/19/剑指OFFER系列之18----删除重复节点/","tags":[{"name":"剑指OFFER 重复节点 链表","slug":"剑指OFFER-重复节点-链表","permalink":"http://example.com/tags/%E5%89%91%E6%8C%87OFFER-%E9%87%8D%E5%A4%8D%E8%8A%82%E7%82%B9-%E9%93%BE%E8%A1%A8/"}]},{"title":"剑指OFFER系列之17----打印n位整数","date":"2021-05-19T09:18:26.000Z","path":"2021/05/19/剑指OFFER系列之17----打印n位整数/","tags":[{"name":"剑指offer n位数字 数组越界","slug":"剑指offer-n位数字-数组越界","permalink":"http://example.com/tags/%E5%89%91%E6%8C%87offer-n%E4%BD%8D%E6%95%B0%E5%AD%97-%E6%95%B0%E7%BB%84%E8%B6%8A%E7%95%8C/"}]},{"title":"Ubuntu20.04 + VS code + go环境配置","date":"2021-04-01T09:36:28.000Z","path":"2021/04/01/Ubuntu20.04 + VS code + go环境配置/","tags":[{"name":"vscode 后端开发","slug":"vscode-后端开发","permalink":"http://example.com/tags/vscode-%E5%90%8E%E7%AB%AF%E5%BC%80%E5%8F%91/"}]},{"title":"Ubuntu20.04 + RTX 3090(兼容RTX 2080 Ti) + Pytorch1.7配置方法","date":"2020-11-30T08:50:56.000Z","path":"2020/11/30/Ubuntu20.04 + RTX 3090(兼容RTX 2080 Ti) + Pytorch1.7配置方法/","tags":[{"name":"Pytorch RTX 3090 nvidia-455 pytorch","slug":"Pytorch-RTX-3090-nvidia-455-pytorch","permalink":"http://example.com/tags/Pytorch-RTX-3090-nvidia-455-pytorch/"}]},{"title":"VS Code——C++编译环境极简配置方法（简单到没没朋友 \\ (  ^  ) / ）","date":"2020-10-31T03:44:59.000Z","path":"2020/10/31/VS Code——C++编译环境极简配置方法（简单到没没朋友 ! (  ^  ) ! ）/","tags":[{"name":"c++","slug":"c","permalink":"http://example.com/tags/c/"}]},{"title":"Ubuntu16.04显卡驱动安装及CUDA10.2配置教程","date":"2020-10-28T09:32:12.000Z","path":"2020/10/28/Ubuntu16.04显卡驱动安装及CUDA10.2配置教程/","tags":[{"name":"显卡驱动 CUDANN","slug":"显卡驱动-CUDANN","permalink":"http://example.com/tags/%E6%98%BE%E5%8D%A1%E9%A9%B1%E5%8A%A8-CUDANN/"}]},{"title":"Ubuntu16.04系统安装U盘启动方法","date":"2020-10-27T13:04:51.000Z","path":"2020/10/27/Ubuntu16.04系统安装U盘启动方法/","tags":[{"name":"openssh 系统安装 静态网关","slug":"openssh-系统安装-静态网关","permalink":"http://example.com/tags/openssh-%E7%B3%BB%E7%BB%9F%E5%AE%89%E8%A3%85-%E9%9D%99%E6%80%81%E7%BD%91%E5%85%B3/"}]},{"title":"Pytorch CAM特征可视化","date":"2020-10-09T11:54:00.000Z","path":"2020/10/09/Pytorch CAM特征可视化/","tags":[{"name":"Pytorch ACM 特征可视化","slug":"Pytorch-ACM-特征可视化","permalink":"http://example.com/tags/Pytorch-ACM-%E7%89%B9%E5%BE%81%E5%8F%AF%E8%A7%86%E5%8C%96/"}]},{"title":"图像读取库合集——cv2, PIL, skimage与numpy, pytorch(ToPILimage)","date":"2020-10-05T03:19:02.000Z","path":"2020/10/05/图像读取库合集——cv2, PIL, skimage与numpy, pytorch(ToPILimage)/","tags":[{"name":"opencv PIL numpy pytorch","slug":"opencv-PIL-numpy-pytorch","permalink":"http://example.com/tags/opencv-PIL-numpy-pytorch/"}]},{"title":"Pytorch学习基础——损失函数","date":"2020-10-01T07:06:59.000Z","path":"2020/10/01/Pytorch学习基础——损失函数/","tags":[{"name":"pytorch loss focalLoss diceLoss","slug":"pytorch-loss-focalLoss-diceLoss","permalink":"http://example.com/tags/pytorch-loss-focalLoss-diceLoss/"}]},{"title":"Jupyter Notebook：本地（win10）访问、运行服务器（linux）虚拟环境Pytorch、TensorFlow etc.","date":"2020-08-30T08:27:52.000Z","path":"2020/08/30/Jupyter Notebook：本地（win10）访问、运行服务器（linux）虚拟环境Pytorch、TensorFlow etc/","tags":[{"name":"远程访问 虚拟环境","slug":"远程访问-虚拟环境","permalink":"http://example.com/tags/%E8%BF%9C%E7%A8%8B%E8%AE%BF%E9%97%AE-%E8%99%9A%E6%8B%9F%E7%8E%AF%E5%A2%83/"}]},{"title":"Radiomics组学分析初始化","date":"2020-07-24T02:58:35.000Z","path":"2020/07/24/Radiomics组学分析初始化/","tags":[{"name":"Radiomics","slug":"Radiomics","permalink":"http://example.com/tags/Radiomics/"}]},{"title":"磕盐小工具----ARXIV论文自动下载","date":"2020-07-24T02:47:13.000Z","path":"2020/07/24/磕盐小工具----ARXIV论文自动下载/","tags":[{"name":"arxiv","slug":"arxiv","permalink":"http://example.com/tags/arxiv/"}]},{"title":"Pytorch实例----NLP之文本分类","date":"2020-06-27T10:02:40.000Z","path":"2020/06/27/Pytorch实例----NLP之文本分类/","tags":[{"name":"NLP Yelp dataset","slug":"NLP-Yelp-dataset","permalink":"http://example.com/tags/NLP-Yelp-dataset/"}]},{"title":"win10安装pytorch-geometric （PYG）包----亲测可用","date":"2020-05-19T02:17:54.000Z","path":"2020/05/19/win10安装pytorch-geometric （PYG）包----亲测可用/","tags":[{"name":"torch_geometric cl.exe ERROR","slug":"torch-geometric-cl-exe-ERROR","permalink":"http://example.com/tags/torch-geometric-cl-exe-ERROR/"}]},{"title":"C++高级编程----熟悉类和对象","date":"2020-04-25T06:16:06.000Z","path":"2020/04/25/C++高级编程----熟悉类和对象/","tags":[{"name":"c++ 类和对象","slug":"c-类和对象","permalink":"http://example.com/tags/c-%E7%B1%BB%E5%92%8C%E5%AF%B9%E8%B1%A1/"}]},{"title":"目标检测之回归损失计量方法","date":"2020-03-26T09:22:12.000Z","path":"2020/03/26/目标检测之回归损失计量方法/","tags":[{"name":"目标检测 回归损失 GIoU DIoU CIoU","slug":"目标检测-回归损失-GIoU-DIoU-CIoU","permalink":"http://example.com/tags/%E7%9B%AE%E6%A0%87%E6%A3%80%E6%B5%8B-%E5%9B%9E%E5%BD%92%E6%8D%9F%E5%A4%B1-GIoU-DIoU-CIoU/"}]},{"title":"TensorboardX----linux服务器远程训练，Windows本地查看日志","date":"2020-02-18T04:08:50.000Z","path":"2020/02/18/TensorboardX----linux服务器远程训练，Windows本地查看日志/","tags":[{"name":"pytorch tensorboardX","slug":"pytorch-tensorboardX","permalink":"http://example.com/tags/pytorch-tensorboardX/"}]},{"title":"统计学习方法——第11章 条件随机场（CRF）","date":"2020-02-02T12:42:28.000Z","path":"2020/02/02/统计学习方法——第11章 条件随机场（CRF）/","tags":[{"name":"条件随机场","slug":"条件随机场","permalink":"http://example.com/tags/%E6%9D%A1%E4%BB%B6%E9%9A%8F%E6%9C%BA%E5%9C%BA/"}]},{"title":"统计学习方法——牛顿法和拟牛顿法","date":"2020-01-11T13:57:00.000Z","path":"2020/01/11/统计学习方法——牛顿法和拟牛顿法/","tags":[{"name":"统计学习方法 牛顿法 拟牛顿法 无约束最优化问题","slug":"统计学习方法-牛顿法-拟牛顿法-无约束最优化问题","permalink":"http://example.com/tags/%E7%BB%9F%E8%AE%A1%E5%AD%A6%E4%B9%A0%E6%96%B9%E6%B3%95-%E7%89%9B%E9%A1%BF%E6%B3%95-%E6%8B%9F%E7%89%9B%E9%A1%BF%E6%B3%95-%E6%97%A0%E7%BA%A6%E6%9D%9F%E6%9C%80%E4%BC%98%E5%8C%96%E9%97%AE%E9%A2%98/"}]},{"title":"VS Code导入Torch后出现红色下划线警告","date":"2020-01-04T07:29:56.000Z","path":"2020/01/04/VS Code导入Torch后出现红色下划线警告/","tags":[{"name":"VS code 红色下划线","slug":"VS-code-红色下划线","permalink":"http://example.com/tags/VS-code-%E7%BA%A2%E8%89%B2%E4%B8%8B%E5%88%92%E7%BA%BF/"}]},{"title":"统计学习方法——第10章 隐马尔可夫模型（HMM）","date":"2020-01-01T14:07:00.000Z","path":"2020/01/01/统计学习方法——第10章 隐马尔可夫模型（HMM）/","tags":[]},{"title":"Pytorch实例----DCGAN图像生成","date":"2019-12-22T02:09:35.000Z","path":"2019/12/22/Pytorch实例----DCGAN图像生成/","tags":[{"name":"GAN DCGAN","slug":"GAN-DCGAN","permalink":"http://example.com/tags/GAN-DCGAN/"}]},{"title":"统计学习方法——第8章 提升方法（AdaBoost+）","date":"2019-11-23T02:16:27.000Z","path":"2019/11/23/统计学习方法——第8章 提升方法（AdaBoost+）/","tags":[{"name":"提升方法 AdaBoost GBDT Xgboost","slug":"提升方法-AdaBoost-GBDT-Xgboost","permalink":"http://example.com/tags/%E6%8F%90%E5%8D%87%E6%96%B9%E6%B3%95-AdaBoost-GBDT-Xgboost/"}]},{"title":"目标检测之NMS算法","date":"2019-11-23T01:15:05.000Z","path":"2019/11/23/目标检测之NMS算法/","tags":[{"name":"NMS soft-NMS","slug":"NMS-soft-NMS","permalink":"http://example.com/tags/NMS-soft-NMS/"}]},{"title":"CUDA out of Memery 解决方法","date":"2019-11-20T10:33:03.000Z","path":"2019/11/20/CUDA out of Memery 解决方法/","tags":[{"name":"CUDA Pytorch","slug":"CUDA-Pytorch","permalink":"http://example.com/tags/CUDA-Pytorch/"}]},{"title":"MANFOLD TX2配置Pytorch1.x方法总结（Python3.5+CUDA9.0+Opencv3.4.1）","date":"2019-11-18T14:24:42.000Z","path":"2019/11/18/MANFOLD TX2配置Pytorch1.x方法总结（Python3.5+CUDA9.0+Opencv3.4.1）/","tags":[{"name":"Pytorch Jeston TX2 Pytorch1.x Opencv","slug":"Pytorch-Jeston-TX2-Pytorch1-x-Opencv","permalink":"http://example.com/tags/Pytorch-Jeston-TX2-Pytorch1-x-Opencv/"}]},{"title":"Pytorch实例----CAFAR10数据集分类（ShuffleNet）","date":"2019-11-12T10:09:42.000Z","path":"2019/11/12/Pytorch实例----CAFAR10数据集分类（ShuffleNet）/","tags":[{"name":"Pytorch CAFAR10 ShuffleNet","slug":"Pytorch-CAFAR10-ShuffleNet","permalink":"http://example.com/tags/Pytorch-CAFAR10-ShuffleNet/"}]},{"title":"Pytorch实例----CAFAR10数据集分类（ResNet）","date":"2019-11-10T02:45:05.000Z","path":"2019/11/10/Pytorch实例----CAFAR10数据集分类（ResNet）/","tags":[{"name":"Pytorch ResNet CAFAR10","slug":"Pytorch-ResNet-CAFAR10","permalink":"http://example.com/tags/Pytorch-ResNet-CAFAR10/"}]},{"title":"VS Code中文输出乱码问题解决方法","date":"2019-11-06T13:29:39.000Z","path":"2019/11/06/VS Code中文输出乱码问题解决方法/","tags":[{"name":"VScode 中文乱码 输出台","slug":"VScode-中文乱码-输出台","permalink":"http://example.com/tags/VScode-%E4%B8%AD%E6%96%87%E4%B9%B1%E7%A0%81-%E8%BE%93%E5%87%BA%E5%8F%B0/"}]},{"title":"第7章 支持向量机（SVM）","date":"2019-10-30T02:27:24.000Z","path":"2019/10/30/第7章 支持向量机（SVM）/","tags":[{"name":"机器学习 SVM","slug":"机器学习-SVM","permalink":"http://example.com/tags/%E6%9C%BA%E5%99%A8%E5%AD%A6%E4%B9%A0-SVM/"}]},{"title":"LeetCode题解：数独游戏求解方法","date":"2019-10-19T14:00:01.000Z","path":"2019/10/19/LeetCode题解：数独游戏求解方法/","tags":[{"name":"LeetCode 数独求解 回溯法","slug":"LeetCode-数独求解-回溯法","permalink":"http://example.com/tags/LeetCode-%E6%95%B0%E7%8B%AC%E6%B1%82%E8%A7%A3-%E5%9B%9E%E6%BA%AF%E6%B3%95/"}]},{"title":"LeetCode题解：数独游戏有效性检测","date":"2019-10-19T13:40:55.000Z","path":"2019/10/19/LeetCode题解：数独游戏有效性检测/","tags":[{"name":"LeetCode 数独有效性 桶排法","slug":"LeetCode-数独有效性-桶排法","permalink":"http://example.com/tags/LeetCode-%E6%95%B0%E7%8B%AC%E6%9C%89%E6%95%88%E6%80%A7-%E6%A1%B6%E6%8E%92%E6%B3%95/"}]},{"title":"Python浅析：迭代器Iterator、生成器generator、装饰器decorator","date":"2019-10-12T04:39:11.000Z","path":"2019/10/12/Python浅析：迭代器Iterator、生成器generator、装饰器decorator/","tags":[{"name":"生成器 迭代器 装饰器","slug":"生成器-迭代器-装饰器","permalink":"http://example.com/tags/%E7%94%9F%E6%88%90%E5%99%A8-%E8%BF%AD%E4%BB%A3%E5%99%A8-%E8%A3%85%E9%A5%B0%E5%99%A8/"}]},{"title":"Caffe配置与编译-----Python3.5 & CUDA9.0","date":"2019-09-29T02:20:18.000Z","path":"2019/09/29/Caffe配置与编译-----Python3.5 & CUDA9.0/","tags":[{"name":"caffe配置","slug":"caffe配置","permalink":"http://example.com/tags/caffe%E9%85%8D%E7%BD%AE/"}]},{"title":"Caffe配置与编译-----OpenCV-3.4.1配置及编译","date":"2019-09-29T01:28:49.000Z","path":"2019/09/29/Caffe配置与编译-----OpenCV-3.4.1配置及编译/","tags":[{"name":"OpenCV Ubuntu","slug":"OpenCV-Ubuntu","permalink":"http://example.com/tags/OpenCV-Ubuntu/"}]},{"title":"python利器----Pycharm安装与完全配置","date":"2019-09-03T11:14:01.000Z","path":"2019/09/03/python利器----Pycharm安装与完全配置/","tags":[{"name":"目标检测 机器学习 Pycharm 服务器运行代码","slug":"目标检测-机器学习-Pycharm-服务器运行代码","permalink":"http://example.com/tags/%E7%9B%AE%E6%A0%87%E6%A3%80%E6%B5%8B-%E6%9C%BA%E5%99%A8%E5%AD%A6%E4%B9%A0-Pycharm-%E6%9C%8D%E5%8A%A1%E5%99%A8%E8%BF%90%E8%A1%8C%E4%BB%A3%E7%A0%81/"}]},{"title":"目标检测之Faster R-CNN ---- 论文理解","date":"2019-08-28T03:10:33.000Z","path":"2019/08/28/目标检测之Faster R-CNN ---- 论文理解/","tags":[{"name":"Faster R-CNN 目标检测","slug":"Faster-R-CNN-目标检测","permalink":"http://example.com/tags/Faster-R-CNN-%E7%9B%AE%E6%A0%87%E6%A3%80%E6%B5%8B/"}]},{"title":"目标检测之Faster R-CNN ---- TensorFlow（CPU）","date":"2019-08-26T02:33:18.000Z","path":"2019/08/26/目标检测之Faster R-CNN ---- TensorFlow（CPU）/","tags":[{"name":"目标检测 TensorFlow Faster R-CNN","slug":"目标检测-TensorFlow-Faster-R-CNN","permalink":"http://example.com/tags/%E7%9B%AE%E6%A0%87%E6%A3%80%E6%B5%8B-TensorFlow-Faster-R-CNN/"}]},{"title":"Pytorch实例----CAFAR10数据集分类（VGG）","date":"2019-08-23T11:36:57.000Z","path":"2019/08/23/Pytorch实例----CAFAR10数据集分类（VGG）/","tags":[{"name":"pytorch vgg","slug":"pytorch-vgg","permalink":"http://example.com/tags/pytorch-vgg/"}]},{"title":"统计学习方法——第6章 logistics回归与最大熵模型","date":"2019-08-19T09:53:53.000Z","path":"2019/08/19/统计学习方法——第6章 logistics回归与最大熵模型/","tags":[{"name":"统计学习方法 logistics回归","slug":"统计学习方法-logistics回归","permalink":"http://example.com/tags/%E7%BB%9F%E8%AE%A1%E5%AD%A6%E4%B9%A0%E6%96%B9%E6%B3%95-logistics%E5%9B%9E%E5%BD%92/"}]},{"title":"Pytorch实例----CAFAR10数据集分类（AlexNet）","date":"2019-08-19T00:20:19.000Z","path":"2019/08/19/Pytorch实例----CAFAR10数据集分类（AlexNet）/","tags":[{"name":"pytorh cafar10 cnn分类","slug":"pytorh-cafar10-cnn分类","permalink":"http://example.com/tags/pytorh-cafar10-cnn%E5%88%86%E7%B1%BB/"}]},{"title":"统计学习方法——第5章 决策树","date":"2019-08-14T02:24:28.000Z","path":"2019/08/14/统计学习方法——第5章 决策树/","tags":[{"name":"统计学习方法 决策树","slug":"统计学习方法-决策树","permalink":"http://example.com/tags/%E7%BB%9F%E8%AE%A1%E5%AD%A6%E4%B9%A0%E6%96%B9%E6%B3%95-%E5%86%B3%E7%AD%96%E6%A0%91/"}]},{"title":"win10安装CUDA9.0+CUDANN+Anaconda3+PYTORCH1.x","date":"2019-08-14T01:13:29.000Z","path":"2019/08/14/win10安装CUDA9.0+CUDANN+Anaconda3+PYTORCH1.x/","tags":[{"name":"CUDA Pytorch GPU","slug":"CUDA-Pytorch-GPU","permalink":"http://example.com/tags/CUDA-Pytorch-GPU/"}]},{"title":"统计学习方法——第4章 朴素贝叶斯法","date":"2019-08-05T00:09:14.000Z","path":"2019/08/05/统计学习方法——第4章 朴素贝叶斯法/","tags":[{"name":"统计学习方法 朴素贝叶斯法 贝叶斯估计","slug":"统计学习方法-朴素贝叶斯法-贝叶斯估计","permalink":"http://example.com/tags/%E7%BB%9F%E8%AE%A1%E5%AD%A6%E4%B9%A0%E6%96%B9%E6%B3%95-%E6%9C%B4%E7%B4%A0%E8%B4%9D%E5%8F%B6%E6%96%AF%E6%B3%95-%E8%B4%9D%E5%8F%B6%E6%96%AF%E4%BC%B0%E8%AE%A1/"}]},{"title":"统计学习方法——第3章 k近邻法","date":"2019-08-04T10:00:38.000Z","path":"2019/08/04/统计学习方法——第3章 k近邻法/","tags":[{"name":"统计学习方法 k近邻法 kd树","slug":"统计学习方法-k近邻法-kd树","permalink":"http://example.com/tags/%E7%BB%9F%E8%AE%A1%E5%AD%A6%E4%B9%A0%E6%96%B9%E6%B3%95-k%E8%BF%91%E9%82%BB%E6%B3%95-kd%E6%A0%91/"}]},{"title":"统计学习方法——第2章 感知机模型编程实现","date":"2019-07-29T04:23:43.000Z","path":"2019/07/29/统计学习方法——第2章 感知机模型编程实现/","tags":[{"name":"统计学习方法 感知机模型 编程实现","slug":"统计学习方法-感知机模型-编程实现","permalink":"http://example.com/tags/%E7%BB%9F%E8%AE%A1%E5%AD%A6%E4%B9%A0%E6%96%B9%E6%B3%95-%E6%84%9F%E7%9F%A5%E6%9C%BA%E6%A8%A1%E5%9E%8B-%E7%BC%96%E7%A8%8B%E5%AE%9E%E7%8E%B0/"}]},{"title":"统计学习方法——第2章 感知机模型","date":"2019-07-28T12:12:38.000Z","path":"2019/07/28/统计学习方法——第2章 感知机模型/","tags":[{"name":"统计学习方法 感知机模型","slug":"统计学习方法-感知机模型","permalink":"http://example.com/tags/%E7%BB%9F%E8%AE%A1%E5%AD%A6%E4%B9%A0%E6%96%B9%E6%B3%95-%E6%84%9F%E7%9F%A5%E6%9C%BA%E6%A8%A1%E5%9E%8B/"}]},{"title":"统计学习方法——第1章 统计学习方法概论","date":"2019-07-27T03:54:46.000Z","path":"2019/07/27/统计学习方法——第1章 统计学习方法概论/","tags":[{"name":"统计学习方法 统计学习方法概论","slug":"统计学习方法-统计学习方法概论","permalink":"http://example.com/tags/%E7%BB%9F%E8%AE%A1%E5%AD%A6%E4%B9%A0%E6%96%B9%E6%B3%95-%E7%BB%9F%E8%AE%A1%E5%AD%A6%E4%B9%A0%E6%96%B9%E6%B3%95%E6%A6%82%E8%AE%BA/"}]},{"title":"Ubuntu18.04 SSH & scp 远程传输文件到服务器","date":"2019-07-15T02:09:15.000Z","path":"2019/07/15/Ubuntu18.04 SSH & scp 远程传输文件到服务器/","tags":[{"name":"Ubuntu ssh putty","slug":"Ubuntu-ssh-putty","permalink":"http://example.com/tags/Ubuntu-ssh-putty/"}]},{"title":"Pytorch学习基础——RNN从训练到测试","date":"2019-07-13T13:28:41.000Z","path":"2019/07/13/Pytorch学习基础——RNN从训练到测试/","tags":[{"name":"Pytorch Pytorch rnn","slug":"Pytorch-Pytorch-rnn","permalink":"http://example.com/tags/Pytorch-Pytorch-rnn/"}]},{"title":"Pytorch学习基础——LeNet从训练到测试","date":"2019-07-13T13:16:35.000Z","path":"2019/07/13/Pytorch学习基础——LeNet从训练到测试/","tags":[{"name":"Pytorch LeNet","slug":"Pytorch-LeNet","permalink":"http://example.com/tags/Pytorch-LeNet/"}]},{"title":"Pytorch学习基础——CNN基本结构搭建","date":"2019-07-13T03:38:57.000Z","path":"2019/07/13/Pytorch学习基础——CNN基本结构搭建/","tags":[{"name":"Pytorch CNN建模","slug":"Pytorch-CNN建模","permalink":"http://example.com/tags/Pytorch-CNN%E5%BB%BA%E6%A8%A1/"}]},{"title":"Pytorch学习基础——torch.squeeze() & torch.unsqueeze()","date":"2019-07-05T13:38:58.000Z","path":"2019/07/05/Pytorch学习基础——torch.squeeze() & torch.unsqueeze()/","tags":[{"name":"Pytorch Pytorch squeeze() unsqueeze()","slug":"Pytorch-Pytorch-squeeze-unsqueeze","permalink":"http://example.com/tags/Pytorch-Pytorch-squeeze-unsqueeze/"}]},{"title":"Pytorch学习基础——torch.DataLoader","date":"2019-07-05T13:18:32.000Z","path":"2019/07/05/Pytorch学习基础——torch.DataLoader/","tags":[{"name":"Pytorch Pytorch DataLoader","slug":"Pytorch-Pytorch-DataLoader","permalink":"http://example.com/tags/Pytorch-Pytorch-DataLoader/"}]},{"title":"机器学习实战之分类篇 一 朴素贝叶斯（从原理到简单词性检测）","date":"2019-06-28T01:47:14.000Z","path":"2019/06/28/机器学习实战之分类篇 一 朴素贝叶斯（从原理到简单词性检测）/","tags":[{"name":"机器学习 朴素贝叶斯 词性检测","slug":"机器学习-朴素贝叶斯-词性检测","permalink":"http://example.com/tags/%E6%9C%BA%E5%99%A8%E5%AD%A6%E4%B9%A0-%E6%9C%B4%E7%B4%A0%E8%B4%9D%E5%8F%B6%E6%96%AF-%E8%AF%8D%E6%80%A7%E6%A3%80%E6%B5%8B/"}]},{"title":"机器学习实战之分类篇 一 决策树（高级应用：配镜大师）","date":"2019-06-25T02:52:55.000Z","path":"2019/06/25/机器学习实战之分类篇 一 决策树（高级应用：配镜大师）/","tags":[{"name":"Python 机器学习 决策树 ID3","slug":"Python-机器学习-决策树-ID3","permalink":"http://example.com/tags/Python-%E6%9C%BA%E5%99%A8%E5%AD%A6%E4%B9%A0-%E5%86%B3%E7%AD%96%E6%A0%91-ID3/"}]},{"title":"Ubuntu18.04 Anaconda 安装pydotplus和graphviz可视化工具","date":"2019-06-25T00:40:44.000Z","path":"2019/06/25/Ubuntu18.04 Anaconda 安装pydotplus和graphviz可视化工具/","tags":[{"name":"Python 机器学习 unbuntu18.04 anaconda-navigator pydotplus graphviz","slug":"Python-机器学习-unbuntu18-04-anaconda-navigator-pydotplus-graphviz","permalink":"http://example.com/tags/Python-%E6%9C%BA%E5%99%A8%E5%AD%A6%E4%B9%A0-unbuntu18-04-anaconda-navigator-pydotplus-graphviz/"}]},{"title":"机器学习实战之分类篇 一 决策树（从银行放贷到相亲的if-else）","date":"2019-06-20T13:19:16.000Z","path":"2019/06/20/机器学习实战之分类篇 一 决策树（从银行放贷到相亲的if-else）/","tags":[{"name":"机器学习 机器学习 决策树","slug":"机器学习-机器学习-决策树","permalink":"http://example.com/tags/%E6%9C%BA%E5%99%A8%E5%AD%A6%E4%B9%A0-%E6%9C%BA%E5%99%A8%E5%AD%A6%E4%B9%A0-%E5%86%B3%E7%AD%96%E6%A0%91/"}]},{"title":"机器学习实战之分类篇 一 k-近邻算法（高级应用：手写数字识别）","date":"2019-06-14T23:52:37.000Z","path":"2019/06/15/机器学习实战之分类篇 一 k-近邻算法（高级应用：手写数字识别）/","tags":[{"name":"机器学习 机器学习 KNN 手写字体识别","slug":"机器学习-机器学习-KNN-手写字体识别","permalink":"http://example.com/tags/%E6%9C%BA%E5%99%A8%E5%AD%A6%E4%B9%A0-%E6%9C%BA%E5%99%A8%E5%AD%A6%E4%B9%A0-KNN-%E6%89%8B%E5%86%99%E5%AD%97%E4%BD%93%E8%AF%86%E5%88%AB/"}]},{"title":"机器学习实战之分类篇 一  k-近邻算法（从电影分类到海伦约会）","date":"2019-06-14T00:54:43.000Z","path":"2019/06/14/机器学习实战之分类篇 一  k-近邻算法（从电影分类到海伦约会）/","tags":[{"name":"机器学习 机器学习 分类 kNN","slug":"机器学习-机器学习-分类-kNN","permalink":"http://example.com/tags/%E6%9C%BA%E5%99%A8%E5%AD%A6%E4%B9%A0-%E6%9C%BA%E5%99%A8%E5%AD%A6%E4%B9%A0-%E5%88%86%E7%B1%BB-kNN/"}]},{"title":"数据结构与算法分析-C++描述 第10章 算法设计技巧（回溯算法之公路收费点重建问题）","date":"2019-05-22T12:39:17.000Z","path":"2019/05/22/数据结构与算法分析-C++描述 第10章 算法设计技巧（回溯算法之公路收费点重建问题）/","tags":[{"name":"数据结构与算法分析-C++描述 算法设计技巧 回溯算法 公路收费站问题","slug":"数据结构与算法分析-C-描述-算法设计技巧-回溯算法-公路收费站问题","permalink":"http://example.com/tags/%E6%95%B0%E6%8D%AE%E7%BB%93%E6%9E%84%E4%B8%8E%E7%AE%97%E6%B3%95%E5%88%86%E6%9E%90-C-%E6%8F%8F%E8%BF%B0-%E7%AE%97%E6%B3%95%E8%AE%BE%E8%AE%A1%E6%8A%80%E5%B7%A7-%E5%9B%9E%E6%BA%AF%E7%AE%97%E6%B3%95-%E5%85%AC%E8%B7%AF%E6%94%B6%E8%B4%B9%E7%AB%99%E9%97%AE%E9%A2%98/"}]},{"title":"数据结构与算法分析-C++描述 第10章 算法设计技巧（随机化算法之跳跃表）","date":"2019-05-19T08:42:35.000Z","path":"2019/05/19/数据结构与算法分析-C++描述 第10章 算法设计技巧（随机化算法之跳跃表）/","tags":[{"name":"数据结构与算法分析-C++描述 算法设计技巧 随机化算法 跳跃表","slug":"数据结构与算法分析-C-描述-算法设计技巧-随机化算法-跳跃表","permalink":"http://example.com/tags/%E6%95%B0%E6%8D%AE%E7%BB%93%E6%9E%84%E4%B8%8E%E7%AE%97%E6%B3%95%E5%88%86%E6%9E%90-C-%E6%8F%8F%E8%BF%B0-%E7%AE%97%E6%B3%95%E8%AE%BE%E8%AE%A1%E6%8A%80%E5%B7%A7-%E9%9A%8F%E6%9C%BA%E5%8C%96%E7%AE%97%E6%B3%95-%E8%B7%B3%E8%B7%83%E8%A1%A8/"}]},{"title":"数据结构与算法分析-C++描述 第10章 算法设计技巧（动态规整之最优二叉搜索树）","date":"2019-05-18T02:54:46.000Z","path":"2019/05/18/数据结构与算法分析-C++描述 第10章 算法设计技巧（动态规整之最优二叉搜索树）/","tags":[{"name":"数据结构与算法分析-C++描述 动态规整 最优二叉搜索树","slug":"数据结构与算法分析-C-描述-动态规整-最优二叉搜索树","permalink":"http://example.com/tags/%E6%95%B0%E6%8D%AE%E7%BB%93%E6%9E%84%E4%B8%8E%E7%AE%97%E6%B3%95%E5%88%86%E6%9E%90-C-%E6%8F%8F%E8%BF%B0-%E5%8A%A8%E6%80%81%E8%A7%84%E6%95%B4-%E6%9C%80%E4%BC%98%E4%BA%8C%E5%8F%89%E6%90%9C%E7%B4%A2%E6%A0%91/"}]},{"title":"数据结构与算法分析-C++描述 第10章 算法设计技巧（分治算法之最近点对问题）","date":"2019-05-16T15:05:04.000Z","path":"2019/05/16/数据结构与算法分析-C++描述 第10章 算法设计技巧（分治算法之最近点对问题）/","tags":[{"name":"数据结构与算法分析-C++描述 分值算法 运行时间 最近点对","slug":"数据结构与算法分析-C-描述-分值算法-运行时间-最近点对","permalink":"http://example.com/tags/%E6%95%B0%E6%8D%AE%E7%BB%93%E6%9E%84%E4%B8%8E%E7%AE%97%E6%B3%95%E5%88%86%E6%9E%90-C-%E6%8F%8F%E8%BF%B0-%E5%88%86%E5%80%BC%E7%AE%97%E6%B3%95-%E8%BF%90%E8%A1%8C%E6%97%B6%E9%97%B4-%E6%9C%80%E8%BF%91%E7%82%B9%E5%AF%B9/"}]},{"title":"数据结构与算法分析-C++描述 第10章 算法设计技巧（贪心算法之霍夫曼编码）","date":"2019-05-15T13:07:30.000Z","path":"2019/05/15/数据结构与算法分析-C++描述 第10章 算法设计技巧（贪心算法之霍夫曼编码）/","tags":[{"name":"数据结构与算法分析-C++描述 算法设计技巧 贪心算法 霍夫曼编码","slug":"数据结构与算法分析-C-描述-算法设计技巧-贪心算法-霍夫曼编码","permalink":"http://example.com/tags/%E6%95%B0%E6%8D%AE%E7%BB%93%E6%9E%84%E4%B8%8E%E7%AE%97%E6%B3%95%E5%88%86%E6%9E%90-C-%E6%8F%8F%E8%BF%B0-%E7%AE%97%E6%B3%95%E8%AE%BE%E8%AE%A1%E6%8A%80%E5%B7%A7-%E8%B4%AA%E5%BF%83%E7%AE%97%E6%B3%95-%E9%9C%8D%E5%A4%AB%E6%9B%BC%E7%BC%96%E7%A0%81/"}]},{"title":"数据结构与算法分析-C++描述 第9章 图论算法（欧拉回路问题之Fleury算法）","date":"2019-05-12T03:05:11.000Z","path":"2019/05/12/数据结构与算法分析-C++描述 第9章 图论算法（欧拉回路问题之Fleury算法）/","tags":[{"name":"数据结构与算法分析-C++描述 欧拉路径 欧拉回路 深度优先算法 Fleury算法","slug":"数据结构与算法分析-C-描述-欧拉路径-欧拉回路-深度优先算法-Fleury算法","permalink":"http://example.com/tags/%E6%95%B0%E6%8D%AE%E7%BB%93%E6%9E%84%E4%B8%8E%E7%AE%97%E6%B3%95%E5%88%86%E6%9E%90-C-%E6%8F%8F%E8%BF%B0-%E6%AC%A7%E6%8B%89%E8%B7%AF%E5%BE%84-%E6%AC%A7%E6%8B%89%E5%9B%9E%E8%B7%AF-%E6%B7%B1%E5%BA%A6%E4%BC%98%E5%85%88%E7%AE%97%E6%B3%95-Fleury%E7%AE%97%E6%B3%95/"}]},{"title":"数据结构与算法分析-C++描述 第9章 图论算法（最小生成树之Kruskal算法）","date":"2019-05-10T02:10:36.000Z","path":"2019/05/10/数据结构与算法分析-C++描述 第9章 图论算法（最小生成树之Kruskal算法）/","tags":[{"name":"数据结构与算法分析-C++描述 最小生成树 Kruskal算法 贪心算法","slug":"数据结构与算法分析-C-描述-最小生成树-Kruskal算法-贪心算法","permalink":"http://example.com/tags/%E6%95%B0%E6%8D%AE%E7%BB%93%E6%9E%84%E4%B8%8E%E7%AE%97%E6%B3%95%E5%88%86%E6%9E%90-C-%E6%8F%8F%E8%BF%B0-%E6%9C%80%E5%B0%8F%E7%94%9F%E6%88%90%E6%A0%91-Kruskal%E7%AE%97%E6%B3%95-%E8%B4%AA%E5%BF%83%E7%AE%97%E6%B3%95/"}]},{"title":"数据结构与算法分析-C++描述 第9章 图论算法（最小生成树之Prim算法）","date":"2019-05-09T03:48:20.000Z","path":"2019/05/09/数据结构与算法分析-C++描述 第9章 图论算法（最小生成树之Prim算法）/","tags":[{"name":"数据结构与算法分析-C++描述 最小生成树 Prim算法 贪心算法","slug":"数据结构与算法分析-C-描述-最小生成树-Prim算法-贪心算法","permalink":"http://example.com/tags/%E6%95%B0%E6%8D%AE%E7%BB%93%E6%9E%84%E4%B8%8E%E7%AE%97%E6%B3%95%E5%88%86%E6%9E%90-C-%E6%8F%8F%E8%BF%B0-%E6%9C%80%E5%B0%8F%E7%94%9F%E6%88%90%E6%A0%91-Prim%E7%AE%97%E6%B3%95-%E8%B4%AA%E5%BF%83%E7%AE%97%E6%B3%95/"}]},{"title":"数据结构与算法分析-C++描述 第9章 图论算法（字梯游戏之Dijkstra算法应用）","date":"2019-04-27T03:45:27.000Z","path":"2019/04/27/数据结构与算法分析-C++描述 第9章 图论算法（字梯游戏之Dijkstra算法应用）/","tags":[{"name":"数据结构与算法分析-C++描述 字梯游戏 Dijkstra应用 c++11标准库","slug":"数据结构与算法分析-C-描述-字梯游戏-Dijkstra应用-c-11标准库","permalink":"http://example.com/tags/%E6%95%B0%E6%8D%AE%E7%BB%93%E6%9E%84%E4%B8%8E%E7%AE%97%E6%B3%95%E5%88%86%E6%9E%90-C-%E6%8F%8F%E8%BF%B0-%E5%AD%97%E6%A2%AF%E6%B8%B8%E6%88%8F-Dijkstra%E5%BA%94%E7%94%A8-c-11%E6%A0%87%E5%87%86%E5%BA%93/"}]},{"title":"数据结构与算法分析-C++描述 第9章 图论算法（全局点最短路径问题之Floyd算法动态规整）","date":"2019-04-26T09:25:02.000Z","path":"2019/04/26/数据结构与算法分析-C++描述 第9章 图论算法（全局点最短路径问题之Floyd算法动态规整）/","tags":[{"name":"数据结构与算法分析-C++描述 Floyd算法 动态规整 最短路径","slug":"数据结构与算法分析-C-描述-Floyd算法-动态规整-最短路径","permalink":"http://example.com/tags/%E6%95%B0%E6%8D%AE%E7%BB%93%E6%9E%84%E4%B8%8E%E7%AE%97%E6%B3%95%E5%88%86%E6%9E%90-C-%E6%8F%8F%E8%BF%B0-Floyd%E7%AE%97%E6%B3%95-%E5%8A%A8%E6%80%81%E8%A7%84%E6%95%B4-%E6%9C%80%E7%9F%AD%E8%B7%AF%E5%BE%84/"}]},{"title":"数据结构与算法分析-C++描述 第9章 图论算法（单源最短路径问题之Dijkstra算法邻接表实现）","date":"2019-04-23T08:24:38.000Z","path":"2019/04/23/数据结构与算法分析-C++描述 第9章 图论算法（单源最短路径问题之Dijkstra算法邻接表实现）/","tags":[{"name":"数据结构与算法分析-C++描述 Dijstra算法 单源最短路径","slug":"数据结构与算法分析-C-描述-Dijstra算法-单源最短路径","permalink":"http://example.com/tags/%E6%95%B0%E6%8D%AE%E7%BB%93%E6%9E%84%E4%B8%8E%E7%AE%97%E6%B3%95%E5%88%86%E6%9E%90-C-%E6%8F%8F%E8%BF%B0-Dijstra%E7%AE%97%E6%B3%95-%E5%8D%95%E6%BA%90%E6%9C%80%E7%9F%AD%E8%B7%AF%E5%BE%84/"}]},{"title":"数据结构与算法分析-C++描述 第9章 图论算法（有向图之广度优先搜索和深度优先探索）","date":"2019-04-20T08:06:36.000Z","path":"2019/04/20/数据结构与算法分析-C++描述 第9章 图论算法（有向图之广度优先搜索和深度优先探索）/","tags":[{"name":"数据结构与算法分析-C++描述 有向图 广度优先搜索 深度优先搜索","slug":"数据结构与算法分析-C-描述-有向图-广度优先搜索-深度优先搜索","permalink":"http://example.com/tags/%E6%95%B0%E6%8D%AE%E7%BB%93%E6%9E%84%E4%B8%8E%E7%AE%97%E6%B3%95%E5%88%86%E6%9E%90-C-%E6%8F%8F%E8%BF%B0-%E6%9C%89%E5%90%91%E5%9B%BE-%E5%B9%BF%E5%BA%A6%E4%BC%98%E5%85%88%E6%90%9C%E7%B4%A2-%E6%B7%B1%E5%BA%A6%E4%BC%98%E5%85%88%E6%90%9C%E7%B4%A2/"}]},{"title":"数据结构与算法分析-C++描述 第9章 图论算法（无向图之广度优先搜索和深度优先探索）","date":"2019-04-19T11:24:22.000Z","path":"2019/04/19/数据结构与算法分析-C++描述 第9章 图论算法（无向图之广度优先搜索和深度优先探索）/","tags":[{"name":"数据结构与算法分析-C++描述 图论算法 广度优先搜索 深度优先搜索 邻接表","slug":"数据结构与算法分析-C-描述-图论算法-广度优先搜索-深度优先搜索-邻接表","permalink":"http://example.com/tags/%E6%95%B0%E6%8D%AE%E7%BB%93%E6%9E%84%E4%B8%8E%E7%AE%97%E6%B3%95%E5%88%86%E6%9E%90-C-%E6%8F%8F%E8%BF%B0-%E5%9B%BE%E8%AE%BA%E7%AE%97%E6%B3%95-%E5%B9%BF%E5%BA%A6%E4%BC%98%E5%85%88%E6%90%9C%E7%B4%A2-%E6%B7%B1%E5%BA%A6%E4%BC%98%E5%85%88%E6%90%9C%E7%B4%A2-%E9%82%BB%E6%8E%A5%E8%A1%A8/"}]},{"title":"数据结构与算法分析-C++描述 第8章 迷宫生成（不相交类的一个应用）","date":"2019-04-18T07:42:14.000Z","path":"2019/04/18/数据结构与算法分析-C++描述 第8章 迷宫生成（不相交类的一个应用）/","tags":[{"name":"数据结构与算法分析-C++描述 不相交类 迷宫生成","slug":"数据结构与算法分析-C-描述-不相交类-迷宫生成","permalink":"http://example.com/tags/%E6%95%B0%E6%8D%AE%E7%BB%93%E6%9E%84%E4%B8%8E%E7%AE%97%E6%B3%95%E5%88%86%E6%9E%90-C-%E6%8F%8F%E8%BF%B0-%E4%B8%8D%E7%9B%B8%E4%BA%A4%E7%B1%BB-%E8%BF%B7%E5%AE%AB%E7%94%9F%E6%88%90/"}]},{"title":"数据结构与算法分析-C++描述 第8章 不相交集类（disjointSet）","date":"2019-04-17T09:09:08.000Z","path":"2019/04/17/数据结构与算法分析-C++描述 第8章 不相交集类（disjointSet）/","tags":[{"name":"数据结构与算法分析-C++描述 不相交类 动态等价问题","slug":"数据结构与算法分析-C-描述-不相交类-动态等价问题","permalink":"http://example.com/tags/%E6%95%B0%E6%8D%AE%E7%BB%93%E6%9E%84%E4%B8%8E%E7%AE%97%E6%B3%95%E5%88%86%E6%9E%90-C-%E6%8F%8F%E8%BF%B0-%E4%B8%8D%E7%9B%B8%E4%BA%A4%E7%B1%BB-%E5%8A%A8%E6%80%81%E7%AD%89%E4%BB%B7%E9%97%AE%E9%A2%98/"}]},{"title":"数据结构与算法分析-C++描述 第7章 桶排序（bucketSort）","date":"2019-04-17T01:10:38.000Z","path":"2019/04/17/数据结构与算法分析-C++描述 第7章 桶排序（bucketSort）/","tags":[{"name":"数据结构与算法分析-C++描述 桶排序 线性时间","slug":"数据结构与算法分析-C-描述-桶排序-线性时间","permalink":"http://example.com/tags/%E6%95%B0%E6%8D%AE%E7%BB%93%E6%9E%84%E4%B8%8E%E7%AE%97%E6%B3%95%E5%88%86%E6%9E%90-C-%E6%8F%8F%E8%BF%B0-%E6%A1%B6%E6%8E%92%E5%BA%8F-%E7%BA%BF%E6%80%A7%E6%97%B6%E9%97%B4/"}]},{"title":"数据结构与算法分析-C++描述 第7章 间接排序（indirectionSort）","date":"2019-04-14T11:25:13.000Z","path":"2019/04/14/数据结构与算法分析-C++描述 第7章 间接排序（indirectionSort）/","tags":[{"name":"数据结构与算法分析-C++描述 间接排序 智能指针类 指针数组","slug":"数据结构与算法分析-C-描述-间接排序-智能指针类-指针数组","permalink":"http://example.com/tags/%E6%95%B0%E6%8D%AE%E7%BB%93%E6%9E%84%E4%B8%8E%E7%AE%97%E6%B3%95%E5%88%86%E6%9E%90-C-%E6%8F%8F%E8%BF%B0-%E9%97%B4%E6%8E%A5%E6%8E%92%E5%BA%8F-%E6%99%BA%E8%83%BD%E6%8C%87%E9%92%88%E7%B1%BB-%E6%8C%87%E9%92%88%E6%95%B0%E7%BB%84/"}]},{"title":"数据结构与算法分析-C++描述 第7章 快速排序（quickSort）","date":"2019-04-14T03:30:51.000Z","path":"2019/04/14/数据结构与算法分析-C++描述 第7章 快速排序（quickSort）/","tags":[{"name":"数据结构与算法分析-C++描述 快速排序 枢纽元 运行时间","slug":"数据结构与算法分析-C-描述-快速排序-枢纽元-运行时间","permalink":"http://example.com/tags/%E6%95%B0%E6%8D%AE%E7%BB%93%E6%9E%84%E4%B8%8E%E7%AE%97%E6%B3%95%E5%88%86%E6%9E%90-C-%E6%8F%8F%E8%BF%B0-%E5%BF%AB%E9%80%9F%E6%8E%92%E5%BA%8F-%E6%9E%A2%E7%BA%BD%E5%85%83-%E8%BF%90%E8%A1%8C%E6%97%B6%E9%97%B4/"}]},{"title":"数据结构与算法分析-C++描述 第7章 归并排序（mergeSort）","date":"2019-04-14T02:51:29.000Z","path":"2019/04/14/数据结构与算法分析-C++描述 第7章 归并排序（mergeSort）/","tags":[{"name":"数据结构与算法分析-C++描述 归并排序 递归算法 分而治之","slug":"数据结构与算法分析-C-描述-归并排序-递归算法-分而治之","permalink":"http://example.com/tags/%E6%95%B0%E6%8D%AE%E7%BB%93%E6%9E%84%E4%B8%8E%E7%AE%97%E6%B3%95%E5%88%86%E6%9E%90-C-%E6%8F%8F%E8%BF%B0-%E5%BD%92%E5%B9%B6%E6%8E%92%E5%BA%8F-%E9%80%92%E5%BD%92%E7%AE%97%E6%B3%95-%E5%88%86%E8%80%8C%E6%B2%BB%E4%B9%8B/"}]},{"title":"数据结构与算法分析-C++描述 第7章 堆排序（heapSort）","date":"2019-04-13T13:21:14.000Z","path":"2019/04/13/数据结构与算法分析-C++描述 第7章 堆排序（heapSort）/","tags":[{"name":"数据结构与算法分析-C++描述 堆排序 大O时间","slug":"数据结构与算法分析-C-描述-堆排序-大O时间","permalink":"http://example.com/tags/%E6%95%B0%E6%8D%AE%E7%BB%93%E6%9E%84%E4%B8%8E%E7%AE%97%E6%B3%95%E5%88%86%E6%9E%90-C-%E6%8F%8F%E8%BF%B0-%E5%A0%86%E6%8E%92%E5%BA%8F-%E5%A4%A7O%E6%97%B6%E9%97%B4/"}]},{"title":"数据结构与算法分析-C++描述 第7章 谢尔排序（shellSort）","date":"2019-04-13T08:52:00.000Z","path":"2019/04/13/数据结构与算法分析-C++描述 第7章 谢尔排序（shellSort）/","tags":[{"name":"数据结构与算法分析-C++描述 谢尔排序 增量序列","slug":"数据结构与算法分析-C-描述-谢尔排序-增量序列","permalink":"http://example.com/tags/%E6%95%B0%E6%8D%AE%E7%BB%93%E6%9E%84%E4%B8%8E%E7%AE%97%E6%B3%95%E5%88%86%E6%9E%90-C-%E6%8F%8F%E8%BF%B0-%E8%B0%A2%E5%B0%94%E6%8E%92%E5%BA%8F-%E5%A2%9E%E9%87%8F%E5%BA%8F%E5%88%97/"}]},{"title":"数据结构与算法分析-C++描述 第7章 插入排序（insertionSort）","date":"2019-04-13T08:10:54.000Z","path":"2019/04/13/数据结构与算法分析-C++描述 第7章 插入排序（insertionSort）/","tags":[{"name":"数据结构与算法分析-C++描述 插入排序 逆序 时间复杂度","slug":"数据结构与算法分析-C-描述-插入排序-逆序-时间复杂度","permalink":"http://example.com/tags/%E6%95%B0%E6%8D%AE%E7%BB%93%E6%9E%84%E4%B8%8E%E7%AE%97%E6%B3%95%E5%88%86%E6%9E%90-C-%E6%8F%8F%E8%BF%B0-%E6%8F%92%E5%85%A5%E6%8E%92%E5%BA%8F-%E9%80%86%E5%BA%8F-%E6%97%B6%E9%97%B4%E5%A4%8D%E6%9D%82%E5%BA%A6/"}]},{"title":"数据结构与算法分析-C++描述 第6章 二项队列ADT（BinomialQueue）","date":"2019-04-12T14:45:30.000Z","path":"2019/04/12/数据结构与算法分析-C++描述 第6章 二项队列ADT（BinomialQueue）/","tags":[{"name":"数据结构与算法分析-C++描述 二项队列ADT 合并 融合","slug":"数据结构与算法分析-C-描述-二项队列ADT-合并-融合","permalink":"http://example.com/tags/%E6%95%B0%E6%8D%AE%E7%BB%93%E6%9E%84%E4%B8%8E%E7%AE%97%E6%B3%95%E5%88%86%E6%9E%90-C-%E6%8F%8F%E8%BF%B0-%E4%BA%8C%E9%A1%B9%E9%98%9F%E5%88%97ADT-%E5%90%88%E5%B9%B6-%E8%9E%8D%E5%90%88/"}]},{"title":"数据结构与算法分析-C++描述 第6章 斜堆ADT（SkewHeap）","date":"2019-04-09T08:51:48.000Z","path":"2019/04/09/数据结构与算法分析-C++描述 第6章 斜堆ADT（SkewHeap）/","tags":[{"name":"数据结构与算法分析-C++描述 斜堆ADT 合并（merge）","slug":"数据结构与算法分析-C-描述-斜堆ADT-合并（merge）","permalink":"http://example.com/tags/%E6%95%B0%E6%8D%AE%E7%BB%93%E6%9E%84%E4%B8%8E%E7%AE%97%E6%B3%95%E5%88%86%E6%9E%90-C-%E6%8F%8F%E8%BF%B0-%E6%96%9C%E5%A0%86ADT-%E5%90%88%E5%B9%B6%EF%BC%88merge%EF%BC%89/"}]},{"title":"数据结构与算法分析-C++描述 第6章 左式堆ADT（LeftistHeap）","date":"2019-04-08T11:25:05.000Z","path":"2019/04/08/数据结构与算法分析-C++描述 第6章 左式堆ADT（LeftistHeap）/","tags":[{"name":"数据结构与算法分析-C++描述 左式堆ADT 零长路径 合并","slug":"数据结构与算法分析-C-描述-左式堆ADT-零长路径-合并","permalink":"http://example.com/tags/%E6%95%B0%E6%8D%AE%E7%BB%93%E6%9E%84%E4%B8%8E%E7%AE%97%E6%B3%95%E5%88%86%E6%9E%90-C-%E6%8F%8F%E8%BF%B0-%E5%B7%A6%E5%BC%8F%E5%A0%86ADT-%E9%9B%B6%E9%95%BF%E8%B7%AF%E5%BE%84-%E5%90%88%E5%B9%B6/"}]},{"title":"数据结构与算法分析-C++描述 第6章 优先队列ADT（最大堆和最小堆）","date":"2019-04-02T11:17:58.000Z","path":"2019/04/02/数据结构与算法分析-C++描述 第6章 优先队列ADT（最大堆和最小堆）/","tags":[{"name":"数据结构与算法分析-C++描述 最大（小）堆 上（下）滤","slug":"数据结构与算法分析-C-描述-最大（小）堆-上（下）滤","permalink":"http://example.com/tags/%E6%95%B0%E6%8D%AE%E7%BB%93%E6%9E%84%E4%B8%8E%E7%AE%97%E6%B3%95%E5%88%86%E6%9E%90-C-%E6%8F%8F%E8%BF%B0-%E6%9C%80%E5%A4%A7%EF%BC%88%E5%B0%8F%EF%BC%89%E5%A0%86-%E4%B8%8A%EF%BC%88%E4%B8%8B%EF%BC%89%E6%BB%A4/"}]},{"title":"数据结构与算法分析-C++描述 第6章 优先队列ADT（二叉堆）","date":"2019-04-02T11:07:10.000Z","path":"2019/04/02/数据结构与算法分析-C++描述 第6章 优先队列ADT（二叉堆）/","tags":[{"name":"数据结构与算法分析-C++描述 优先队列ADT 二叉堆","slug":"数据结构与算法分析-C-描述-优先队列ADT-二叉堆","permalink":"http://example.com/tags/%E6%95%B0%E6%8D%AE%E7%BB%93%E6%9E%84%E4%B8%8E%E7%AE%97%E6%B3%95%E5%88%86%E6%9E%90-C-%E6%8F%8F%E8%BF%B0-%E4%BC%98%E5%85%88%E9%98%9F%E5%88%97ADT-%E4%BA%8C%E5%8F%89%E5%A0%86/"}]},{"title":"数据结构与算法分析-C++描述 第5章 散列ADT（开放定址法）","date":"2019-04-01T08:31:07.000Z","path":"2019/04/01/数据结构与算法分析-C++描述 第5章 散列ADT（开放定址法）/","tags":[{"name":"数据结构与算法分析-C++描述 散列ADT 开放定址法 平方散列法 双散列","slug":"数据结构与算法分析-C-描述-散列ADT-开放定址法-平方散列法-双散列","permalink":"http://example.com/tags/%E6%95%B0%E6%8D%AE%E7%BB%93%E6%9E%84%E4%B8%8E%E7%AE%97%E6%B3%95%E5%88%86%E6%9E%90-C-%E6%8F%8F%E8%BF%B0-%E6%95%A3%E5%88%97ADT-%E5%BC%80%E6%94%BE%E5%AE%9A%E5%9D%80%E6%B3%95-%E5%B9%B3%E6%96%B9%E6%95%A3%E5%88%97%E6%B3%95-%E5%8F%8C%E6%95%A3%E5%88%97/"}]},{"title":"数据结构与算法分析-C++描述 第5章 散列ADT（分离链接法）","date":"2019-03-30T09:16:31.000Z","path":"2019/03/30/数据结构与算法分析-C++描述 第5章 散列ADT（分离链接法）/","tags":[{"name":"数据结构与算法分析-C++描述 散列表ADT 分离链接法","slug":"数据结构与算法分析-C-描述-散列表ADT-分离链接法","permalink":"http://example.com/tags/%E6%95%B0%E6%8D%AE%E7%BB%93%E6%9E%84%E4%B8%8E%E7%AE%97%E6%B3%95%E5%88%86%E6%9E%90-C-%E6%8F%8F%E8%BF%B0-%E6%95%A3%E5%88%97%E8%A1%A8ADT-%E5%88%86%E7%A6%BB%E9%93%BE%E6%8E%A5%E6%B3%95/"}]},{"title":"TensorFlow实战 13 DenseNet神经网络（CVPR2017最佳论文）","date":"2019-03-29T13:39:02.000Z","path":"2019/03/29/TensorFlow实战 13 DenseNet神经网络（CVPR2017最佳论文）/","tags":[{"name":"TensorFlow实战 denseNet tensorflow","slug":"TensorFlow实战-denseNet-tensorflow","permalink":"http://example.com/tags/TensorFlow%E5%AE%9E%E6%88%98-denseNet-tensorflow/"}]},{"title":"数据结构与算法分析-C++描述 第4章 红黑树（拓展）","date":"2019-03-28T08:11:01.000Z","path":"2019/03/28/数据结构与算法分析-C++描述 第4章 红黑树（拓展）/","tags":[{"name":"数据结构与算法分析-C++描述 红黑树 旋转","slug":"数据结构与算法分析-C-描述-红黑树-旋转","permalink":"http://example.com/tags/%E6%95%B0%E6%8D%AE%E7%BB%93%E6%9E%84%E4%B8%8E%E7%AE%97%E6%B3%95%E5%88%86%E6%9E%90-C-%E6%8F%8F%E8%BF%B0-%E7%BA%A2%E9%BB%91%E6%A0%91-%E6%97%8B%E8%BD%AC/"}]},{"title":"数据结构与算法分析-C++描述 第4章 B树","date":"2019-03-27T08:53:30.000Z","path":"2019/03/27/数据结构与算法分析-C++描述 第4章 B树/","tags":[{"name":"数据结构与算法分析-C++描述 B树 分裂 融合","slug":"数据结构与算法分析-C-描述-B树-分裂-融合","permalink":"http://example.com/tags/%E6%95%B0%E6%8D%AE%E7%BB%93%E6%9E%84%E4%B8%8E%E7%AE%97%E6%B3%95%E5%88%86%E6%9E%90-C-%E6%8F%8F%E8%BF%B0-B%E6%A0%91-%E5%88%86%E8%A3%82-%E8%9E%8D%E5%90%88/"}]},{"title":"数据结构与算法分析-C++描述 第4章 伸展树（splay树）","date":"2019-03-25T08:44:54.000Z","path":"2019/03/25/数据结构与算法分析-C++描述 第4章 伸展树（splay树）/","tags":[{"name":"数据结构与算法分析-C++描述 伸展树 旋转","slug":"数据结构与算法分析-C-描述-伸展树-旋转","permalink":"http://example.com/tags/%E6%95%B0%E6%8D%AE%E7%BB%93%E6%9E%84%E4%B8%8E%E7%AE%97%E6%B3%95%E5%88%86%E6%9E%90-C-%E6%8F%8F%E8%BF%B0-%E4%BC%B8%E5%B1%95%E6%A0%91-%E6%97%8B%E8%BD%AC/"}]},{"title":"数据结构与算法分析-C++描述 第4章 平衡二叉树（AVL树）","date":"2019-03-23T14:08:14.000Z","path":"2019/03/23/数据结构与算法分析-C++描述 第4章 平衡二叉树（AVL树）/","tags":[{"name":"数据结构与算法分析-C++描述 AVL树 泛型 旋转","slug":"数据结构与算法分析-C-描述-AVL树-泛型-旋转","permalink":"http://example.com/tags/%E6%95%B0%E6%8D%AE%E7%BB%93%E6%9E%84%E4%B8%8E%E7%AE%97%E6%B3%95%E5%88%86%E6%9E%90-C-%E6%8F%8F%E8%BF%B0-AVL%E6%A0%91-%E6%B3%9B%E5%9E%8B-%E6%97%8B%E8%BD%AC/"}]},{"title":"数据结构与算法分析-C++描述 第4章 二叉树ADT（二叉查找树）","date":"2019-03-22T11:54:44.000Z","path":"2019/03/22/数据结构与算法分析-C++描述 第4章 二叉树ADT（二叉查找树）/","tags":[{"name":"数据结构与算法分析-C++描述 二叉树ADT 二叉查找树","slug":"数据结构与算法分析-C-描述-二叉树ADT-二叉查找树","permalink":"http://example.com/tags/%E6%95%B0%E6%8D%AE%E7%BB%93%E6%9E%84%E4%B8%8E%E7%AE%97%E6%B3%95%E5%88%86%E6%9E%90-C-%E6%8F%8F%E8%BF%B0-%E4%BA%8C%E5%8F%89%E6%A0%91ADT-%E4%BA%8C%E5%8F%89%E6%9F%A5%E6%89%BE%E6%A0%91/"}]},{"title":"约瑟夫环的两种常见解法：链表解法和递归解法（C++版）","date":"2019-03-21T09:02:30.000Z","path":"2019/03/21/约瑟夫环的两种常见解法：链表解法和递归解法（C++版）/","tags":[{"name":"数据结构与算法分析-C++描述 Josephus 链表解法 递归解法","slug":"数据结构与算法分析-C-描述-Josephus-链表解法-递归解法","permalink":"http://example.com/tags/%E6%95%B0%E6%8D%AE%E7%BB%93%E6%9E%84%E4%B8%8E%E7%AE%97%E6%B3%95%E5%88%86%E6%9E%90-C-%E6%8F%8F%E8%BF%B0-Josephus-%E9%93%BE%E8%A1%A8%E8%A7%A3%E6%B3%95-%E9%80%92%E5%BD%92%E8%A7%A3%E6%B3%95/"}]},{"title":"数据结构与算法分析-C++描述 第3章 队列ADT（循环队列的两种实现）","date":"2019-03-21T08:36:56.000Z","path":"2019/03/21/数据结构与算法分析-C++描述 第3章 队列ADT（循环队列的两种实现）/","tags":[{"name":"数据结构与算法分析-C++描述 队列ADT 队列数组 队列链表","slug":"数据结构与算法分析-C-描述-队列ADT-队列数组-队列链表","permalink":"http://example.com/tags/%E6%95%B0%E6%8D%AE%E7%BB%93%E6%9E%84%E4%B8%8E%E7%AE%97%E6%B3%95%E5%88%86%E6%9E%90-C-%E6%8F%8F%E8%BF%B0-%E9%98%9F%E5%88%97ADT-%E9%98%9F%E5%88%97%E6%95%B0%E7%BB%84-%E9%98%9F%E5%88%97%E9%93%BE%E8%A1%A8/"}]},{"title":"数据结构与算法分析-C++描述 第3章 栈ADT（简单计算器设计）","date":"2019-03-20T12:32:40.000Z","path":"2019/03/20/数据结构与算法分析-C++描述 第3章 栈ADT（简单计算器设计）/","tags":[{"name":"数据结构与算法分析-C++描述 堆栈 ADT 计算器","slug":"数据结构与算法分析-C-描述-堆栈-ADT-计算器","permalink":"http://example.com/tags/%E6%95%B0%E6%8D%AE%E7%BB%93%E6%9E%84%E4%B8%8E%E7%AE%97%E6%B3%95%E5%88%86%E6%9E%90-C-%E6%8F%8F%E8%BF%B0-%E5%A0%86%E6%A0%88-ADT-%E8%AE%A1%E7%AE%97%E5%99%A8/"}]},{"title":"数据结构与算法分析-C++描述 第3章 双向链表（通用模板类型/泛型编程）","date":"2019-03-19T12:04:26.000Z","path":"2019/03/19/数据结构与算法分析-C++描述 第3章 双向链表（通用模板类型!泛型编程）/","tags":[{"name":"数据结构与算法分析-C++描述 双向链表 泛型编程 gcc","slug":"数据结构与算法分析-C-描述-双向链表-泛型编程-gcc","permalink":"http://example.com/tags/%E6%95%B0%E6%8D%AE%E7%BB%93%E6%9E%84%E4%B8%8E%E7%AE%97%E6%B3%95%E5%88%86%E6%9E%90-C-%E6%8F%8F%E8%BF%B0-%E5%8F%8C%E5%90%91%E9%93%BE%E8%A1%A8-%E6%B3%9B%E5%9E%8B%E7%BC%96%E7%A8%8B-gcc/"}]},{"title":"TensorFlow实战 12 ResNet进阶（手势识别）","date":"2019-03-16T10:00:08.000Z","path":"2019/03/16/TensorFlow实战 12 ResNet进阶（手势识别）/","tags":[{"name":"TensorFlow实战 resnet50 Keras","slug":"TensorFlow实战-resnet50-Keras","permalink":"http://example.com/tags/TensorFlow%E5%AE%9E%E6%88%98-resnet50-Keras/"}]},{"title":"TensorFlow实战 11 ResNet神经网络（ILSVRC-2015 champion）","date":"2019-03-11T12:13:46.000Z","path":"2019/03/11/TensorFlow实战 11 ResNet神经网络（ILSVRC-2015 champion）/","tags":[{"name":"TensorFlow实战 tensorflow ResNet","slug":"TensorFlow实战-tensorflow-ResNet","permalink":"http://example.com/tags/TensorFlow%E5%AE%9E%E6%88%98-tensorflow-ResNet/"}]},{"title":"数据结构与算法分析-C++描述 第2章 关于素数的前生今世","date":"2019-03-10T13:32:17.000Z","path":"2019/03/10/数据结构与算法分析-C++描述 第2章 关于素数的前生今世/","tags":[{"name":"数据结构与算法分析-C++描述 素数 厄拉多塞筛","slug":"数据结构与算法分析-C-描述-素数-厄拉多塞筛","permalink":"http://example.com/tags/%E6%95%B0%E6%8D%AE%E7%BB%93%E6%9E%84%E4%B8%8E%E7%AE%97%E6%B3%95%E5%88%86%E6%9E%90-C-%E6%8F%8F%E8%BF%B0-%E7%B4%A0%E6%95%B0-%E5%8E%84%E6%8B%89%E5%A4%9A%E5%A1%9E%E7%AD%9B/"}]},{"title":"TensorFlow实战 10 GoogleLeNet进阶（Python调用OpenCV库实现图像识别）","date":"2019-03-10T04:10:23.000Z","path":"2019/03/10/TensorFlow实战 10 GoogleLeNet进阶（Python调用OpenCV库实现图像识别）/","tags":[{"name":"TensorFlow实战 OpenCV GoogleLeNet pytohn","slug":"TensorFlow实战-OpenCV-GoogleLeNet-pytohn","permalink":"http://example.com/tags/TensorFlow%E5%AE%9E%E6%88%98-OpenCV-GoogleLeNet-pytohn/"}]},{"title":"TensorFlow实战 9 GoogleLeNet神经网络（2014 ILSVRC 1st in Error(Top-5)）","date":"2019-03-09T09:38:24.000Z","path":"2019/03/09/TensorFlow实战 9 GoogleLeNet神经网络（2014 ILSVRC 1st in Error(Top-5)）/","tags":[{"name":"TensorFlow实战 tensorflow googleLeNet","slug":"TensorFlow实战-tensorflow-googleLeNet","permalink":"http://example.com/tags/TensorFlow%E5%AE%9E%E6%88%98-tensorflow-googleLeNet/"}]},{"title":"TensorFlow实战 8 VGGNet进阶（图像风格迁移）","date":"2019-03-04T13:06:34.000Z","path":"2019/03/04/TensorFlow实战 8 VGGNet进阶（图像风格迁移）/","tags":[{"name":"TensorFlow实战 VGG进阶 图像风格迁移","slug":"TensorFlow实战-VGG进阶-图像风格迁移","permalink":"http://example.com/tags/TensorFlow%E5%AE%9E%E6%88%98-VGG%E8%BF%9B%E9%98%B6-%E5%9B%BE%E5%83%8F%E9%A3%8E%E6%A0%BC%E8%BF%81%E7%A7%BB/"}]},{"title":"TensorFlow实战 7 VGGNet神经网络（ILSVRC-2014 classification 2nd and location 1st）","date":"2019-03-02T13:44:04.000Z","path":"2019/03/02/TensorFlow实战 7 VGGNet神经网络（ILSVRC-2014 classification 2nd and location 1st）/","tags":[{"name":"TensorFlow实战 VGGNet","slug":"TensorFlow实战-VGGNet","permalink":"http://example.com/tags/TensorFlow%E5%AE%9E%E6%88%98-VGGNet/"}]},{"title":"TensorFlow实战 6 AlexNet进阶（ImageNet识别）","date":"2019-03-02T05:20:49.000Z","path":"2019/03/02/TensorFlow实战 6 AlexNet进阶（ImageNet识别）/","tags":[{"name":"TensorFlow实战 Alexnet ImageNet","slug":"TensorFlow实战-Alexnet-ImageNet","permalink":"http://example.com/tags/TensorFlow%E5%AE%9E%E6%88%98-Alexnet-ImageNet/"}]},{"title":"TensorFlow实战 5 AlexNet神经网络（ILSVRC-2012冠军）","date":"2019-03-01T13:26:21.000Z","path":"2019/03/01/TensorFlow实战 5 AlexNet神经网络（ILSVRC-2012冠军）/","tags":[{"name":"TensorFlow实战 Alexnet","slug":"TensorFlow实战-Alexnet","permalink":"http://example.com/tags/TensorFlow%E5%AE%9E%E6%88%98-Alexnet/"}]},{"title":"TensorFlow实战 4 进阶CNN -- CIFAR-10数据集训练与测试","date":"2019-02-27T15:36:28.000Z","path":"2019/02/27/TensorFlow实战 4 进阶CNN -- CIFAR-10数据集训练与测试/","tags":[{"name":"TensorFlow实战 CIFAR-10 L2正则 LRN","slug":"TensorFlow实战-CIFAR-10-L2正则-LRN","permalink":"http://example.com/tags/TensorFlow%E5%AE%9E%E6%88%98-CIFAR-10-L2%E6%AD%A3%E5%88%99-LRN/"}]},{"title":"TensorFlow 实战 3 LeNet5神经网络(LeNet-5 CNN)","date":"2019-02-26T03:11:25.000Z","path":"2019/02/26/TensorFlow 实战 3 LeNet5神经网络(LeNet-5 CNN)/","tags":[{"name":"TensorFlow实战 LeNet-5","slug":"TensorFlow实战-LeNet-5","permalink":"http://example.com/tags/TensorFlow%E5%AE%9E%E6%88%98-LeNet-5/"}]},{"title":"TensorFlow实战 1 自编码器（Autoencoder）","date":"2019-02-25T03:17:15.000Z","path":"2019/02/25/TensorFlow实战 1 自编码器（Autoencoder）/","tags":[{"name":"TensorFlow实战 自编码器 autoencoder","slug":"TensorFlow实战-自编码器-autoencoder","permalink":"http://example.com/tags/TensorFlow%E5%AE%9E%E6%88%98-%E8%87%AA%E7%BC%96%E7%A0%81%E5%99%A8-autoencoder/"}]},{"title":"TensorFlow实战 2 多层感知机（Multi-Layer Precepton MLP）","date":"2019-02-25T02:56:33.000Z","path":"2019/02/25/TensorFlow实战 2 多层感知机（Multi-Layer Precepton MLP）/","tags":[{"name":"TensorFlow实战 多层感知机（MLP）","slug":"TensorFlow实战-多层感知机（MLP）","permalink":"http://example.com/tags/TensorFlow%E5%AE%9E%E6%88%98-%E5%A4%9A%E5%B1%82%E6%84%9F%E7%9F%A5%E6%9C%BA%EF%BC%88MLP%EF%BC%89/"}]},{"title":"HTML基础练习 一 （文本、表格、表单）","date":"2019-01-17T05:01:21.000Z","path":"2019/01/17/HTML基础练习 一 （文本、表格、表单）/","tags":[{"name":"text table form","slug":"text-table-form","permalink":"http://example.com/tags/text-table-form/"}]},{"title":"java阶段学习笔记 二 （集合类、随机数）","date":"2019-01-17T04:54:07.000Z","path":"2019/01/17/java阶段学习笔记 二 （集合类、随机数）/","tags":[{"name":"Collection ArrayLis Random","slug":"Collection-ArrayLis-Random","permalink":"http://example.com/tags/Collection-ArrayLis-Random/"}]},{"title":"Java阶段学习笔记 一 （java基础练习）","date":"2019-01-17T04:47:50.000Z","path":"2019/01/17/Java阶段学习笔记 一 （java基础练习）/","tags":[{"name":"java 数据类型 面向对象","slug":"java-数据类型-面向对象","permalink":"http://example.com/tags/java-%E6%95%B0%E6%8D%AE%E7%B1%BB%E5%9E%8B-%E9%9D%A2%E5%90%91%E5%AF%B9%E8%B1%A1/"}]},{"title":"C++ Primer第五版第十七章编程练习（输入、输出和文件）","date":"2019-01-06T14:48:04.000Z","path":"2019/01/06/C++ Primer第五版第十七章编程练习（输入、输出和文件）/","tags":[{"name":"C++ Primer iostream fstream 文件流","slug":"C-Primer-iostream-fstream-文件流","permalink":"http://example.com/tags/C-Primer-iostream-fstream-%E6%96%87%E4%BB%B6%E6%B5%81/"}]},{"title":"C++ Primer第五版第十六章编程练习（string类、STL、算法）","date":"2018-12-30T13:05:14.000Z","path":"2018/12/30/C++ Primer第五版第十六章编程练习（string类、STL、算法）/","tags":[{"name":"C++ Primer string类 STL 函数对象 算法","slug":"C-Primer-string类-STL-函数对象-算法","permalink":"http://example.com/tags/C-Primer-string%E7%B1%BB-STL-%E5%87%BD%E6%95%B0%E5%AF%B9%E8%B1%A1-%E7%AE%97%E6%B3%95/"}]},{"title":"C++ Primer第五版 第十五章编程练习（友元类、异常、RTTI）","date":"2018-12-20T14:01:09.000Z","path":"2018/12/20/C++ Primer第五版 第十五章编程练习（友元类、异常、RTTI）/","tags":[{"name":"C++ Primer 友元类 try catch RTTI","slug":"C-Primer-友元类-try-catch-RTTI","permalink":"http://example.com/tags/C-Primer-%E5%8F%8B%E5%85%83%E7%B1%BB-try-catch-RTTI/"}]},{"title":"C++Primer第五版 第十四章编程练习（包含、私有继承、类模板、多重继承）","date":"2018-12-16T14:39:37.000Z","path":"2018/12/16/C++Primer第五版 第十四章编程练习（包含、私有继承、类模板、多重继承）/","tags":[{"name":"C++ Primer C   多重继承 纯虚函数","slug":"C-Primer-C-多重继承-纯虚函数","permalink":"http://example.com/tags/C-Primer-C-%E5%A4%9A%E9%87%8D%E7%BB%A7%E6%89%BF-%E7%BA%AF%E8%99%9A%E5%87%BD%E6%95%B0/"}]},{"title":"C++ Primer第五版 第十三章编程练习节选（继承、多态、动态内存分配、抽象基类（ABC））","date":"2018-12-09T10:38:19.000Z","path":"2018/12/09/C++ Primer第五版 第十三章编程练习节选（继承、多态、动态内存分配、抽象基类（ABC））/","tags":[{"name":"C++ Primer C   类 继承 多态","slug":"C-Primer-C-类-继承-多态","permalink":"http://example.com/tags/C-Primer-C-%E7%B1%BB-%E7%BB%A7%E6%89%BF-%E5%A4%9A%E6%80%81/"}]},{"title":"C++ Primer第五版 第十二章编程练习节选（动态内存、类）","date":"2018-12-04T07:18:25.000Z","path":"2018/12/04/C++ Primer第五版 第十二章编程练习节选（动态内存、类）/","tags":[{"name":"C++ Primer 动态内存分配 类","slug":"C-Primer-动态内存分配-类","permalink":"http://example.com/tags/C-Primer-%E5%8A%A8%E6%80%81%E5%86%85%E5%AD%98%E5%88%86%E9%85%8D-%E7%B1%BB/"}]},{"title":"Ubuntu 18.04安装Octave（4.4.1）","date":"2018-11-28T08:00:31.000Z","path":"2018/11/28/Ubuntu 18.04安装Octave（4.4.1）/","tags":[{"name":"Ubuntu Octave flatpak","slug":"Ubuntu-Octave-flatpak","permalink":"http://example.com/tags/Ubuntu-Octave-flatpak/"}]},{"title":"解决VMware虚拟机Ubuntu 18.04无法上网问题！","date":"2018-11-28T07:35:44.000Z","path":"2018/11/28/解决VMware虚拟机Ubuntu 18.04无法上网问题！/","tags":[{"name":"Ubuntu 18.04 无法上网 DHCP","slug":"Ubuntu-18-04-无法上网-DHCP","permalink":"http://example.com/tags/Ubuntu-18-04-%E6%97%A0%E6%B3%95%E4%B8%8A%E7%BD%91-DHCP/"}]},{"title":"C++ Primer第五版 第十一章编程练习节选（构造函数、友元函数、操作符重载）","date":"2018-11-23T07:20:39.000Z","path":"2018/11/23/C++ Primer第五版 第十一章编程练习节选（构造函数、友元函数、操作符重载）/","tags":[{"name":"C++ Primer C   友元函数 操作符重载","slug":"C-Primer-C-友元函数-操作符重载","permalink":"http://example.com/tags/C-Primer-C-%E5%8F%8B%E5%85%83%E5%87%BD%E6%95%B0-%E6%93%8D%E4%BD%9C%E7%AC%A6%E9%87%8D%E8%BD%BD/"}]},{"title":"C++ primer第五版 第十章编程练习拓展（链表）","date":"2018-11-15T13:24:13.000Z","path":"2018/11/15/C++ primer第五版 第十章编程练习拓展（链表）/","tags":[{"name":"C++ Primer 面向对象 链表","slug":"C-Primer-面向对象-链表","permalink":"http://example.com/tags/C-Primer-%E9%9D%A2%E5%90%91%E5%AF%B9%E8%B1%A1-%E9%93%BE%E8%A1%A8/"}]},{"title":"c++ primer第五版 第十章编程练习节选（结构体&类）","date":"2018-11-14T15:29:01.000Z","path":"2018/11/14/c++ primer第五版 第十章编程练习节选（结构体&类）/","tags":[{"name":"C++ Primer 结构体","slug":"C-Primer-结构体","permalink":"http://example.com/tags/C-Primer-%E7%BB%93%E6%9E%84%E4%BD%93/"}]},{"title":"C++ Primer 第五版 第九章编程练习节选（名称空间 & Linux下Makefile结构）","date":"2018-11-08T13:03:50.000Z","path":"2018/11/08/C++ Primer 第五版 第九章编程练习节选（名称空间 & Linux下Makefile结构）/","tags":[{"name":"linux C++ Primer C   名称空间 makefile","slug":"linux-C-Primer-C-名称空间-makefile","permalink":"http://example.com/tags/linux-C-Primer-C-%E5%90%8D%E7%A7%B0%E7%A9%BA%E9%97%B4-makefile/"}]},{"title":"C++ Primer 第五版 第八章编程练习节选（函数重载与模板函数）","date":"2018-11-03T03:53:45.000Z","path":"2018/11/03/C++ Primer 第五版 第八章编程练习节选（函数重载与模板函数）/","tags":[{"name":"C++ Primer 函数重载 模板函数","slug":"C-Primer-函数重载-模板函数","permalink":"http://example.com/tags/C-Primer-%E5%87%BD%E6%95%B0%E9%87%8D%E8%BD%BD-%E6%A8%A1%E6%9D%BF%E5%87%BD%E6%95%B0/"}]},{"title":"MATLAB/simulink S-函数编程实践","date":"2018-11-03T02:47:35.000Z","path":"2018/11/03/MATLAB!simulink S-函数编程实践/","tags":[]},{"title":"C++ Primer 第五版 第七章编程练习节选（函数指针数组）","date":"2018-10-26T13:18:08.000Z","path":"2018/10/26/C++ Primer 第五版 第七章编程练习节选（函数指针数组）/","tags":[{"name":"C++ Primer C   函数指针 函数指针数组","slug":"C-Primer-C-函数指针-函数指针数组","permalink":"http://example.com/tags/C-Primer-C-%E5%87%BD%E6%95%B0%E6%8C%87%E9%92%88-%E5%87%BD%E6%95%B0%E6%8C%87%E9%92%88%E6%95%B0%E7%BB%84/"}]},{"title":"MATLAB/simulink S-函数编程基础","date":"2018-10-21T11:51:00.000Z","path":"2018/10/21/MATLAB!simulink S-函数编程基础/","tags":[]},{"title":"C++ primer 第五版编程练习第六章习题节选","date":"2018-10-21T11:29:00.000Z","path":"2018/10/21/C++ primer 第五版编程练习第六章习题节选/","tags":[]},{"title":"C++ Primer 第五版 第六章编程练习节选（数组运算）","date":"2018-10-18T12:33:29.000Z","path":"2018/10/18/C++ Primer 第五版 第六章编程练习节选（数组运算）/","tags":[{"name":"C++ Primer C   数组","slug":"C-Primer-C-数组","permalink":"http://example.com/tags/C-Primer-C-%E6%95%B0%E7%BB%84/"}]},{"title":"Ubuntu16.04 安装 arm-linux-gcc方法步骤","date":"2018-10-18T06:19:13.000Z","path":"2018/10/18/Ubuntu16.04 安装 arm-linux-gcc方法步骤/","tags":[{"name":"arm gcc linux","slug":"arm-gcc-linux","permalink":"http://example.com/tags/arm-gcc-linux/"}]},{"title":"随机数发生器及其简单应用","date":"2018-10-08T09:30:02.000Z","path":"2018/10/08/随机数发生器及其简单应用/","tags":[{"name":"数据结构与算法分析-C++描述 随机数 汇编 C   猜数字","slug":"数据结构与算法分析-C-描述-随机数-汇编-C-猜数字","permalink":"http://example.com/tags/%E6%95%B0%E6%8D%AE%E7%BB%93%E6%9E%84%E4%B8%8E%E7%AE%97%E6%B3%95%E5%88%86%E6%9E%90-C-%E6%8F%8F%E8%BF%B0-%E9%9A%8F%E6%9C%BA%E6%95%B0-%E6%B1%87%E7%BC%96-C-%E7%8C%9C%E6%95%B0%E5%AD%97/"}]},{"title":"《TensorFlow实例-- VGG》","date":"2018-10-07T11:43:43.000Z","path":"2018/10/07/《TensorFlow实例-- VGG》/","tags":[{"name":"TensorFlow实战","slug":"TensorFlow实战","permalink":"http://example.com/tags/TensorFlow%E5%AE%9E%E6%88%98/"},{"name":"VGG","slug":"VGG","permalink":"http://example.com/tags/VGG/"},{"name":"神经网络","slug":"神经网络","permalink":"http://example.com/tags/%E7%A5%9E%E7%BB%8F%E7%BD%91%E7%BB%9C/"},{"name":"TensorFlow","slug":"TensorFlow","permalink":"http://example.com/tags/TensorFlow/"}]},{"title":"《C++ Primer 第五版编程练习  -- 第五章》","date":"2018-10-07T11:37:00.000Z","path":"2018/10/07/《C++ Primer 第五版编程练习  -- 第五章》/","tags":[{"name":"C++","slug":"C","permalink":"http://example.com/tags/C/"},{"name":"C++ Primer","slug":"C-Primer","permalink":"http://example.com/tags/C-Primer/"},{"name":"iostream","slug":"iostream","permalink":"http://example.com/tags/iostream/"}]},{"title":"C++ primer 第五版 第五章编程练习节选（结构运算）","date":"2018-10-07T11:08:36.000Z","path":"2018/10/07/C++ primer 第五版 第五章编程练习节选（结构运算）/","tags":[{"name":"C++ Primer C   string struct string I/O","slug":"C-Primer-C-string-struct-string-I-O","permalink":"http://example.com/tags/C-Primer-C-string-struct-string-I-O/"}]},{"title":"《TensorFlow实例一  MINIST手写字体识别》","date":"2018-08-25T10:19:36.000Z","path":"2018/08/25/《TensorFlow实例一  MINIST手写字体识别》/","tags":[{"name":"TensorFlow实战","slug":"TensorFlow实战","permalink":"http://example.com/tags/TensorFlow%E5%AE%9E%E6%88%98/"},{"name":"TensorFlow","slug":"TensorFlow","permalink":"http://example.com/tags/TensorFlow/"},{"name":"RNN","slug":"RNN","permalink":"http://example.com/tags/RNN/"},{"name":"Python","slug":"Python","permalink":"http://example.com/tags/Python/"},{"name":"MINIST","slug":"MINIST","permalink":"http://example.com/tags/MINIST/"}]},{"title":"《VGG in TensorFlow Demo》","date":"2018-08-17T05:07:00.000Z","path":"2018/08/17/《VGG in TensorFlow Demo》/","tags":[]},{"title":"《TensorFlow实例》","date":"2018-08-01T14:16:00.000Z","path":"2018/08/01/《TensorFlow实例》/","tags":[{"name":"TensorFlow","slug":"TensorFlow","permalink":"http://example.com/tags/TensorFlow/"},{"name":"RNN","slug":"RNN","permalink":"http://example.com/tags/RNN/"},{"name":"MNIST","slug":"MNIST","permalink":"http://example.com/tags/MNIST/"}]},{"title":"Github上传代码操作步骤","date":"2018-06-28T02:50:00.000Z","path":"2018/06/28/Github上传代码操作步骤/","tags":[{"name":"git github","slug":"git-github","permalink":"http://example.com/tags/git-github/"}]},{"title":"Matlab图像处理应用举例2","date":"2018-01-20T12:49:00.000Z","path":"2018/01/20/Matlab图像处理应用举例2/","tags":[]},{"title":"Matlab 图像处理应用举例1","date":"2018-01-17T06:46:00.000Z","path":"2018/01/17/Matlab 图像处理应用举例1/","tags":[]}]